Language model created by QuickLM on Thu Jun  8 20:38:51 EDT 2017
Copyright (c) 1996-2010 Carnegie Mellon University and Alexander I. Rudnicky

The model is in standard ARPA format, designed by Doug Paul while he was at MITRE.

The code that was used to produce this language model is available in Open Source.
Please visit http://www.speech.cs.cmu.edu/tools/ for more information

The (fixed) discount mass is 0.5. The backoffs are computed using the ratio method.
This model based on a corpus of 7725 sentences and 5686 words

\data\
ngram 1=5686
ngram 2=19059
ngram 3=24033

\1-grams:
-4.3478 'CAUSE -0.2958
-4.9498 1.77245385. -0.2616
-4.9498 1936, -0.2616
-4.9498 1995 -0.3010
-4.9498 2003 -0.3001
-4.9498 2006. -0.2616
-4.9498 3D. -0.2616
-1.0619 </s> -0.3010
-1.0619 <s> -0.1782
-2.1349 A -0.2482
-4.6488 A! -0.2616
-4.9498 A'S -0.2999
-4.9498 A, -0.3010
-4.9498 A-A-AND -0.3007
-4.6488 A-ALL -0.3008
-4.9498 A-AND -0.3010
-4.9498 A-AND, -0.3008
-4.6488 A-ARE -0.2959
-4.9498 A-AT -0.3010
-4.9498 A-HO, -0.3010
-4.9498 A. -0.2616
-4.9498 AAAAAAAAAAAAAAAAAH! -0.2616
-4.9498 AAAAAAAAAAAAAH! -0.2616
-4.9498 AAAAAAAH! -0.2616
-4.6488 AAAAH! -0.2616
-3.6488 AAH! -0.2615
-4.9498 ABANDONING -0.3007
-4.9498 ABDUCTED, -0.2616
-4.6488 ABDUCTIONS -0.3001
-4.9498 ABIDE -0.3010
-4.0467 ABLE -0.2584
-4.9498 ABLED. -0.2616
-4.9498 ABORTION, -0.2616
-4.4727 ABORTION? -0.2616
-2.8929 ABOUT -0.2360
-4.9498 ABOUT! -0.2616
-4.3478 ABOUT, -0.2955
-4.1717 ABOUT. -0.2616
-4.0467 ABOUT? -0.2616
-4.9498 ABOVE -0.3009
-4.9498 ABOVE. -0.3010
-4.6488 ABSOLUTELY -0.3010
-4.9498 ACADEMY -0.2616
-4.9498 ACCELERATED -0.2616
-4.4727 ACCEPT -0.2986
-4.9498 ACCEPTED. -0.2616
-4.9498 ACCESS -0.2974
-4.9498 ACCIDENT -0.2616
-4.9498 ACCIDENT. -0.2616
-4.9498 ACCIDENTALLY -0.2616
-4.9498 ACCOMPLISH -0.3010
-4.9498 ACCOMPLISHED -0.3008
-4.9498 ACCORDINGLY -0.2616
-4.9498 ACCOUNTANT, -0.2616
-4.9498 ACCURATE -0.3008
-4.9498 ACHIEVED -0.3008
-4.9498 ACID. -0.2616
-4.9498 ACQUIRE -0.3010
-4.9498 ACQUIRED -0.2616
-4.9498 ACQUISITION -0.3010
-4.9498 ACQUISITIONS! -0.2616
-4.4727 ACROSS -0.2974
-4.9498 ACT -0.2997
-4.6488 ACTING -0.3010
-4.9498 ACTING. -0.2616
-4.9498 ACTION. -0.2616
-4.6488 ACTIVE -0.2616
-4.9498 ACTOR -0.3010
-4.9498 ACTUAL -0.3010
-4.3478 ACTUALLY -0.2612
-4.2508 ACTUALLY, -0.2529
-4.9498 ACTUALLY. -0.2616
-4.6488 AD -0.3010
-4.9498 ADAGE -0.2995
-4.9498 ADAM -0.2990
-4.9498 ADAM. -0.2616
-4.6488 ADD -0.3008
-4.6488 ADMIT -0.2615
-4.9498 ADMIT, -0.2616
-4.9498 ADULT -0.3010
-4.9498 ADULTS -0.2997
-4.6488 ADVANCED -0.2616
-4.9498 ADVANCED, -0.2616
-4.4727 ADVENTURE -0.2616
-4.6488 ADVENTURE! -0.2616
-4.4727 ADVENTURE'S -0.2616
-4.3478 ADVENTURE, -0.2602
-4.3478 ADVENTURE. -0.2616
-4.9498 ADVENTURE? -0.2616
-4.1717 ADVENTURES -0.2599
-4.9498 ADVENTURES! -0.2616
-4.9498 ADVENTURES, -0.3000
-4.9498 ADVENTURES. -0.2616
-4.9498 ADVENTURES? -0.2616
-4.9498 ADVENTUROUSLY. -0.2616
-4.6488 ADVICE -0.3000
-4.9498 ADVISE -0.2967
-4.9498 ADVOCACY -0.3010
-4.9498 AFFAIR -0.2616
-4.9498 AFRAID -0.2616
-4.9498 AFRICAN -0.3010
-3.7737 AFTER -0.2874
-4.9498 AFTER, -0.2616
-4.9498 AFTERNOON? -0.2616
-4.6488 AFTERSHAVE -0.3009
-4.9498 AFTERWARDS! -0.2616
-4.9498 AFTERWARDS. -0.2616
-4.6488 AGAIN -0.2981
-4.9498 AGAIN! -0.2616
-4.2508 AGAIN, -0.2594
-4.1047 AGAIN. -0.2616
-4.3478 AGAIN? -0.2616
-4.6488 AGAINST -0.2978
-4.6488 AGE -0.2989
-4.9498 AGE, -0.2616
-4.4727 AGE. -0.2616
-4.9498 AGENCY -0.2999
-4.9498 AGENCY. -0.2616
-4.9498 AGES. -0.2616
-4.6488 AGGRESSIVE -0.2616
-4.9498 AGGRESSIVE, -0.3009
-4.9498 AGGRESSIVELY -0.2616
-4.9498 AGING -0.3010
-4.9498 AGO, -0.2616
-4.3478 AGREE -0.2584
-4.9498 AGREE. -0.3008
-4.9498 AH! -0.3006
-4.4727 AH, -0.3003
-4.9498 AHA! -0.2616
-4.4727 AHEAD -0.2961
-4.9498 AHEAD. -0.2616
-4.9498 AHEM. -0.3010
-4.6488 AHH. -0.2608
-4.9498 AIDS. -0.2616
-4.9498 AIM, -0.2616
-4.4727 AIN'T -0.2613
-4.2508 AIR -0.2599
-4.9498 AIR-NESS -0.2616
-4.9498 AIRBORNE, -0.3000
-4.9498 AIRFLOW -0.2995
-4.9498 AKA -0.2974
-4.9498 AKBAR! -0.2616
-4.9498 AL-QAEDA, -0.3010
-4.9498 ALABAMA -0.2616
-4.9498 ALBERT -0.3010
-4.9498 ALCOHOLISM. -0.2616
-4.9498 ALEJANDRO -0.3010
-4.9498 ALEJANDRO, -0.2616
-4.9498 ALERT! -0.2616
-4.9498 ALEXAND -0.2616
-4.2508 ALIEN -0.2616
-4.9498 ALIEN? -0.2616
-4.9498 ALIENS -0.2616
-4.9498 ALIVE -0.3010
-4.6488 ALIVE. -0.2616
-4.6488 ALIVE? -0.2616
-2.7376 ALL -0.2261
-4.9498 ALL, -0.2616
-4.2508 ALL. -0.2616
-4.9498 ALLAHU -0.3010
-4.9498 ALLEVIATE -0.2997
-4.9498 ALLOW -0.2616
-4.6488 ALLOWED -0.2615
-4.9498 ALLOWS -0.3009
-3.9956 ALMOST -0.2575
-4.6488 ALONE -0.2616
-4.9498 ALONE! -0.2616
-4.9498 ALONE, -0.3010
-4.9498 ALONE. -0.2616
-4.6488 ALONG -0.2576
-4.6488 ALREADY -0.3010
-4.9498 ALREADY! -0.2616
-4.9498 ALREADY. -0.2616
-3.7737 ALSO -0.2567
-4.4727 ALSO, -0.2975
-4.9498 ALTERING -0.2997
-4.3478 ALTERNATE -0.3010
-3.6276 ALWAYS -0.2564
-3.5348 AM -0.2528
-4.9498 AM. -0.2616
-4.9498 AM? -0.2616
-4.9498 AMAZING -0.2978
-4.9498 AMAZING. -0.2616
-4.9498 AMAZON -0.3010
-4.9498 AMBITIOUS, -0.2616
-4.9498 AMERICA, -0.2616
-4.9498 AMERICAN -0.2616
-4.9498 AMOUNT -0.2991
-4.9498 AMPLIFIER, -0.2616
-4.9498 AMUSEMENT -0.2616
-3.0925 AN -0.2573
-4.9498 ANAL -0.3010
-4.3478 ANATOMY -0.3010
-2.3276 AND -0.2028
-3.9498 AND, -0.2964
-4.9498 ANDERSON, -0.2616
-4.9498 ANDERSON. -0.2616
-4.9498 ANDROMEDA -0.3010
-4.9498 ANDUM -0.2616
-4.9498 ANDWE'RE -0.3010
-4.9498 ANDWHEN -0.3003
-4.9498 ANGEL'S -0.2616
-4.9498 ANGELES. -0.2616
-4.4727 ANGER -0.2616
-4.9498 ANGRY -0.3010
-4.6488 ANIMALS -0.2980
-4.6488 ANIMALS! -0.2616
-4.9498 ANIMATRONIC -0.3010
-4.9498 ANN -0.3010
-4.4727 ANNIE. -0.2616
-4.9498 ANNOUNCEMENT -0.2616
-4.9498 ANNUAL -0.3010
-3.7457 ANOTHER -0.2611
-4.9498 ANOTHER. -0.2616
-4.4727 ANSWER -0.2994
-4.9498 ANSWER'S -0.3010
-4.9498 ANSWER. -0.2616
-4.9498 ANSWERS. -0.2616
-4.6488 ANTI-PLANET -0.3010
-4.9498 ANTICIPATED. -0.2616
-4.9498 ANTIDOTE. -0.2616
-4.9498 ANTILOCK -0.3010
-4.6488 ANTIQUE -0.2616
-4.2508 ANTS -0.2604
-4.9498 ANXIETY -0.3005
-3.7737 ANY -0.2594
-4.4727 ANYBODY -0.2610
-4.9498 ANYBODY, -0.3008
-4.9498 ANYMORE! -0.2616
-4.6488 ANYMORE, -0.3000
-4.4727 ANYMORE. -0.2616
-4.4727 ANYONE -0.3009
-4.9498 ANYONE! -0.2616
-3.8359 ANYTHING -0.2508
-4.1717 ANYTHING, -0.2615
-4.0467 ANYTHING. -0.2616
-4.9498 ANYTHING? -0.2616
-4.6488 ANYWAY! -0.2616
-4.9498 ANYWAY, -0.2976
-4.6488 ANYWAYS. -0.2616
-4.9498 ANYWAYS? -0.2616
-4.4727 ANYWHERE. -0.2616
-4.9498 APART! -0.2616
-4.6488 APART, -0.2606
-4.9498 APARTMENTS -0.3010
-4.9498 APPARENT -0.3010
-4.6488 APPARENTLY, -0.3010
-4.6488 APPEARS -0.2973
-4.9498 APPLE -0.3010
-4.9498 APPLE-RELATED -0.3010
-4.2508 APPLES -0.2981
-4.9498 APPLES, -0.2616
-4.4727 APPLES? -0.2616
-4.6488 APPLEY -0.2614
-4.9498 APPOINTMENT -0.2981
-4.9498 APPOINTMENT, -0.3010
-4.6488 APPRECIATE -0.2971
-4.9498 APPROVAL? -0.2616
-4.9498 APRON -0.2616
-4.9498 APRON. -0.2616
-4.9498 AR-ARSENIO. -0.2616
-2.7168 ARE -0.2390
-4.4727 ARE, -0.2606
-4.1047 ARE. -0.2616
-4.1047 AREN'T -0.3000
-4.9498 AREOLA, -0.3009
-4.9498 AREYOU? -0.2616
-4.9498 ARGENTINA. -0.2616
-4.6488 ARM -0.2961
-4.9498 ARM. -0.2616
-4.6488 ARMADA -0.3010
-4.9498 ARMED. -0.2616
-4.9498 ARMING -0.3010
-4.9498 ARMS -0.2616
-4.9498 ARMS. -0.2616
-4.9498 ARMY -0.3010
-3.6276 AROUND -0.2429
-4.1717 AROUND, -0.2583
-4.2508 AROUND. -0.2616
-4.9498 ARRESTED, -0.3004
-4.9498 ARRIVED -0.2616
-4.9498 ARRIVING -0.3006
-4.9498 ARSENIO -0.2616
-4.9498 ART -0.2616
-4.9498 ARTERIAL -0.3010
-4.9498 ARTISTS. -0.2616
-3.3700 AS -0.2395
-4.6488 ASHAMED -0.2961
-4.9498 ASIDE -0.3009
-3.9498 ASK -0.2477
-4.9498 ASK, -0.3009
-4.9498 ASK. -0.2616
-4.4727 ASKED -0.3009
-4.9498 ASKED, -0.3006
-4.4727 ASKING -0.2609
-4.9498 ASKING, -0.2990
-4.9498 ASKING. -0.2616
-4.9498 ASLEEP -0.2616
-4.9498 ASPECT -0.2616
-4.9498 ASS, -0.2616
-4.6488 ASS. -0.2616
-4.9498 ASSAULT -0.2616
-4.9498 ASSEMBLE -0.2974
-4.9498 ASSERTIVE. -0.2616
-4.9498 ASSHOLE. -0.2616
-4.9498 ASSHOLES -0.3010
-4.4727 ASSUME -0.2954
-4.6488 ASTEROID -0.2616
-3.0360 AT -0.2414
-4.9498 AT, -0.3010
-4.9498 ATHLETIC -0.3010
-4.6488 ATLAS! -0.2616
-4.9498 ATLAS? -0.2616
-4.9498 ATTACK -0.2616
-4.9498 ATTACKED -0.3008
-4.9498 ATTENDED -0.2998
-4.9498 ATTENTION -0.2616
-4.9498 ATTENTION. -0.2616
-4.9498 ATTRACTION -0.2616
-4.9498 ATTRACTION, -0.3010
-4.9498 ATTRACTIONS. -0.2616
-4.9498 ATTRACTIVE -0.2616
-4.9498 AUTHOR, -0.2616
-4.9498 AUTO -0.3010
-4.9498 AUTO, -0.2990
-4.9498 AUTOBIOGRAPHICAL? -0.2616
-4.9498 AUTOPILOT. -0.2616
-4.9498 AVOID -0.3009
-4.6488 AW! -0.2606
-3.7457 AW, -0.3000
-4.3478 AWARD -0.2606
-4.9498 AWARD-WINNING -0.3010
-4.4727 AWARE -0.2595
-4.9498 AWARENESS -0.2616
-4.9498 AWARENESS, -0.3004
-3.9498 AWAY -0.2613
-4.9498 AWAY! -0.2616
-4.6488 AWAY. -0.2616
-4.9498 AWESOME. -0.2616
-4.9498 AWESOMENESS, -0.2616
-4.9498 AWW! -0.2616
-4.6488 AWW, -0.3006
-4.9498 AWW. -0.3008
-4.9498 AXLE? -0.2616
-4.6488 B -0.2616
-4.9498 B-BACK -0.3010
-4.9498 B-BRILLIANT. -0.3009
-4.9498 B-BUT -0.2976
-4.9498 B-BYE. -0.2616
-4.9498 B-O-O-O-Y -0.2616
-4.9498 BA -0.3008
-4.6488 BABIES -0.2610
-4.9498 BABIES, -0.2616
-4.9498 BABIES. -0.2616
-4.4727 BABY -0.2616
-4.2508 BABY! -0.2616
-4.2508 BABY. -0.2616
-4.9498 BABYLEGS -0.2990
-4.3478 BABYLEGS, -0.2957
-4.6488 BABYLEGS. -0.2616
-3.4058 BACK -0.2535
-4.1717 BACK! -0.2612
-4.4727 BACK, -0.2616
-4.0467 BACK. -0.2616
-4.9498 BACK? -0.2616
-4.9498 BACK?! -0.2616
-4.6488 BACKED -0.2576
-4.9498 BACKPACK? -0.2616
-4.9498 BACKUP -0.3010
-4.9498 BACKWARD -0.2616
-4.9498 BACTERIA, -0.2616
-3.7457 BAD -0.2538
-4.4727 BAD! -0.2616
-4.2508 BAD, -0.2605
-4.4727 BAD. -0.2616
-4.6488 BAIL -0.3003
-4.9498 BAILED -0.3003
-4.9498 BAILING -0.2616
-4.9498 BALDING -0.2616
-4.1047 BALL -0.3001
-4.9498 BALL-THROWING -0.3010
-4.9498 BALL. -0.2616
-4.6488 BALLS -0.2616
-4.9498 BAND-AID -0.3009
-4.6488 BANGING -0.2997
-4.9498 BANGS -0.2616
-4.9498 BANGS. -0.2616
-4.9498 BAR -0.2997
-4.6488 BARELY -0.3003
-4.9498 BARGAIN, -0.2616
-4.9498 BASED -0.3003
-4.4727 BASICALLY -0.2606
-4.9498 BASIS. -0.2616
-4.9498 BASKETS -0.2616
-4.9498 BATH. -0.2616
-4.9498 BATHROOM, -0.2616
-4.6488 BATHROOM. -0.2616
-4.2508 BAWK, -0.2616
-4.9498 BAWK. -0.2616
-4.9498 BAY -0.2995
-4.9498 BAY. -0.2616
-2.7623 BE -0.2400
-4.6488 BE! -0.2616
-4.9498 BE, -0.3009
-4.6488 BE? -0.2616
-4.6488 BEAN -0.2616
-4.9498 BEAN'S -0.3010
-4.6488 BEAN. -0.2616
-4.9498 BEAST -0.2616
-4.9498 BEAT, -0.2616
-4.9498 BEAT. -0.2616
-4.9498 BEATING -0.3009
-4.3478 BEAUTIFUL -0.3006
-4.9498 BEAUTIFUL, -0.2616
-4.4727 BEAUTIFUL. -0.2616
-4.9498 BEAUTY -0.3010
-4.4727 BECAME -0.2616
-3.2777 BECAUSE -0.2267
-4.4727 BECAUSE, -0.2965
-4.6488 BECOME -0.2978
-4.6488 BECOMES -0.2616
-4.9498 BEDROCK -0.3009
-4.9498 BEDROOM -0.3010
-4.9498 BEDTIME -0.2999
-3.4727 BEEN -0.2564
-4.9498 BEEN. -0.2616
-4.9498 BEEPING, -0.3010
-4.9498 BEEPS! -0.2616
-3.9956 BEFORE -0.2496
-4.9498 BEFORE. -0.2616
-4.9498 BEFORE? -0.2616
-4.9498 BEG -0.2999
-4.6488 BEGIN -0.3002
-4.9498 BEGINNER'S -0.3010
-4.9498 BEGINNING -0.2981
-4.9498 BEGINNING, -0.2616
-4.6488 BEGINS -0.3002
-4.4727 BEHAVIOR. -0.2616
-4.6488 BEHIND -0.2997
-4.9498 BEHIND-EVERY-GREAT-MAN -0.2616
-4.9498 BEHIND. -0.2616
-4.9498 BEHIND? -0.2616
-3.5881 BEING -0.2557
-4.9498 BEING, -0.2616
-3.9956 BELIEVE -0.2526
-4.9498 BELIEVE, -0.2616
-4.9498 BELIEVE. -0.2616
-4.9498 BELL -0.3010
-4.9498 BELONG -0.3010
-4.9498 BELONGS -0.3010
-4.9498 BELOVED -0.2616
-4.6488 BELOW -0.2995
-4.9498 BELOW, -0.2616
-4.9498 BELUSHIS -0.2616
-4.6488 BEND -0.2998
-4.9498 BENEATH -0.3008
-4.9498 BENNETT, -0.2616
-3.9084 BEST -0.2567
-4.9498 BEST, -0.2967
-4.9498 BEST-SELLING -0.3010
-4.6488 BEST. -0.2616
-4.9498 BESTSELLING -0.3010
-4.1717 BET -0.2919
-4.9498 BET, -0.3010
-4.9498 BET. -0.2616
-4.3478 BETH -0.2600
-4.6488 BETH! -0.2616
-4.2508 BETH, -0.2605
-3.9498 BETH. -0.2616
-4.9498 BETH? -0.2616
-3.7737 BETTER -0.2605
-4.9498 BETTER, -0.2616
-4.9498 BETTER. -0.2616
-4.3478 BETWEEN -0.2992
-4.2508 BEYOND -0.2983
-4.9498 BIASED, -0.2616
-4.9498 BIDDER -0.2616
-4.0467 BIG -0.2615
-4.9498 BIG, -0.2616
-4.6488 BIGGER -0.3010
-4.2508 BILL -0.2616
-4.9498 BILL? -0.2616
-4.6488 BILLION -0.2616
-4.9498 BILLY. -0.2616
-4.9498 BIOLOGICAL -0.3010
-4.9498 BIRDIE -0.2991
-4.9498 BIRDIE. -0.2616
-4.9498 BIRDS. -0.2616
-4.9498 BIRTHING -0.3010
-3.9498 BIT -0.2593
-4.9498 BIT, -0.2616
-4.9498 BIT. -0.2616
-4.9498 BIT? -0.2616
-4.4727 BITCH -0.2581
-3.7457 BITCH! -0.2616
-4.9498 BITCH, -0.3010
-4.1717 BITCH. -0.2616
-4.9498 BITCH? -0.2616
-4.6488 BITCHES! -0.2616
-4.9498 BITE. -0.2616
-4.9498 BITES -0.3010
-4.9498 BITTER -0.3010
-4.9498 BLACK -0.3010
-4.9498 BLACK. -0.2616
-4.9498 BLADDER -0.3010
-4.6488 BLAME -0.3002
-4.9498 BLAME! -0.2616
-4.9498 BLANK -0.3009
-4.9498 BLAST. -0.2616
-4.6488 BLEEDING -0.2980
-4.9498 BLEND. -0.2616
-4.6488 BLEW -0.2978
-4.9498 BLIMFARX, -0.2967
-4.9498 BLIND -0.3009
-4.9498 BLIND? -0.2616
-4.9498 BLOCK -0.2616
-4.9498 BLOCKAGE. -0.2616
-4.3478 BLOOD -0.2565
-4.9498 BLOOD! -0.2616
-4.9498 BLOOD, -0.2616
-4.9498 BLOOD. -0.2616
-4.6488 BLOOGIES, -0.2616
-4.9498 BLOOM -0.3007
-4.9498 BLOOM'S -0.3010
-4.6488 BLOOM, -0.2604
-4.4727 BLOOM. -0.2616
-4.6488 BLOOM? -0.2616
-4.4727 BLOW -0.2994
-4.9498 BOARD-DRIVEN. -0.2616
-4.9498 BOB -0.3010
-4.9498 BOBBY -0.3010
-4.6488 BODIES. -0.2616
-4.3478 BODY -0.2969
-4.9498 BODY, -0.2990
-4.9498 BODY. -0.2616
-4.9498 BOLD -0.3010
-4.9498 BOMB -0.3010
-4.6488 BOMB, -0.2606
-4.6488 BOMB. -0.2616
-4.9498 BOMB?! -0.2616
-4.9498 BOMBED -0.3010
-4.9498 BOND. -0.2616
-4.4727 BONE -0.3010
-4.9498 BONUS-GIVING -0.3010
-4.9498 BOO-YAH! -0.2616
-4.9498 BOOBIES -0.2616
-4.9498 BOOBIES. -0.2616
-4.9498 BOOBS. -0.2616
-4.9498 BOOBY -0.3010
-4.9498 BOOK -0.2995
-4.9498 BOOM! -0.2616
-4.9498 BOOM. -0.2616
-4.9498 BOPS! -0.2616
-4.6488 BORED. -0.2616
-4.9498 BORING -0.2616
-4.9498 BORING. -0.2616
-3.9498 BORN -0.2596
-4.9498 BORN. -0.2616
-4.6488 BOSS -0.2600
-4.9498 BOSS? -0.2616
-3.7194 BOTH -0.2538
-4.9498 BOTH! -0.2616
-4.9498 BOTH. -0.2616
-4.9498 BOTHERED -0.2981
-4.9498 BOTHERING -0.3007
-4.9498 BOTTLE -0.2616
-4.9498 BOTTLED -0.3010
-4.6488 BOTTOM -0.2616
-4.9498 BOUGHT -0.3008
-4.4727 BOULDER -0.2616
-4.9498 BOULDER?! -0.2616
-4.9498 BOUNCE. -0.2616
-4.9498 BOUNDS -0.3008
-4.9498 BOX -0.2616
-4.6488 BOX. -0.2616
-4.9498 BOXES -0.2991
-4.9498 BOXES. -0.2616
-4.9498 BOXING -0.3010
-4.4727 BOY -0.2980
-4.9498 BOY! -0.2616
-3.9084 BOY, -0.2500
-4.1047 BOY. -0.2616
-4.9498 BOY? -0.2616
-4.9498 BOYFRIEND? -0.2616
-4.6488 BRAD -0.3010
-4.9498 BRAD'S -0.2616
-4.6488 BRAD. -0.2616
-4.9498 BRADBURY, -0.2616
-4.9498 BRADLEY! -0.2616
-4.4727 BRAIN -0.2979
-4.9498 BRAIN, -0.2967
-4.6488 BRAINS -0.2612
-4.9498 BRAKES, -0.2616
-4.9498 BRAND-NEW -0.3010
-4.9498 BRANDON. -0.2616
-4.6488 BREAD -0.3002
-3.9956 BREAK -0.2560
-4.4727 BREAK. -0.2616
-4.9498 BREAKDOWN. -0.2616
-4.9498 BREAKFAST -0.2616
-4.9498 BREAKFAST, -0.2616
-4.6488 BREAKING -0.3010
-4.9498 BREAKTHROUGH. -0.2616
-4.9498 BREATH -0.2616
-4.9498 BREATH, -0.2616
-4.4727 BREATH. -0.2616
-4.2508 BREATHE -0.2593
-4.9498 BREED -0.3000
-4.9498 BREED. -0.2616
-4.9498 BREEDING -0.2990
-4.9498 BREEZE. -0.2616
-4.9498 BREW -0.3008
-4.6488 BRIDGE -0.2616
-4.0467 BRING -0.2540
-4.9498 BRINGING -0.3010
-4.4727 BRO. -0.2616
-4.4727 BROKEN -0.2616
-4.9498 BROKEN, -0.2616
-4.9498 BROKEN-LEG -0.3010
-4.9498 BRONCHIAL -0.3010
-4.9498 BROTHER -0.2616
-4.4727 BROTHER. -0.2616
-4.9498 BROTHER? -0.2616
-4.4727 BROTHERS -0.2581
-4.3478 BROTHERS, -0.2616
-4.3478 BROTHERS. -0.2616
-4.9498 BROTHERTOOK -0.3003
-4.9498 BROUGHT -0.3010
-4.9498 BRUSH -0.3002
-4.9498 BUBONIC -0.3010
-4.6488 BUCKET -0.2986
-4.9498 BUCKET. -0.2616
-4.3478 BUCKLE -0.3008
-4.9498 BUDDY! -0.2616
-4.0467 BUDDY. -0.2615
-4.6488 BUDDY? -0.2616
-4.9498 BUGS -0.3010
-4.9498 BUH-BYE. -0.2616
-4.4727 BUILD -0.2616
-4.3478 BUILDING -0.2581
-4.2508 BUILT -0.2996
-4.6488 BULL -0.2616
-4.9498 BULLCRAP. -0.2616
-4.9498 BULLET! -0.2616
-4.9498 BULLET, -0.2616
-4.9498 BULLY -0.3010
-4.9498 BUMMER. -0.2616
-4.9498 BUMPING -0.3008
-4.9498 BUN -0.3010
-3.8037 BUNCH -0.2595
-4.9498 BUNDLE -0.2991
-4.6488 BUNNY -0.3010
-4.9498 BUREAUCRACY. -0.2616
-4.9498 BUREAUCRATS. -0.2616
-4.9498 BURIED -0.3010
-4.9498 BURIES -0.3009
-4.6488 BURN -0.3006
-4.9498 BURNIN' -0.3009
-4.9498 BURNING -0.3010
-4.9498 BURNS! -0.2616
-4.6488 BURQA -0.2995
-4.9498 BURST -0.2999
-4.9498 BURST! -0.3010
-4.9498 BUSHES -0.2616
-4.4727 BUSINESS -0.2616
-4.6488 BUSINESS, -0.2616
-4.3478 BUSINESS. -0.2616
-4.9498 BUSINESS? -0.2616
-4.6488 BUSY -0.2607
-4.3478 BUSY. -0.2616
-2.8635 BUT -0.2252
-3.9498 BUT, -0.2548
-4.3478 BUTT -0.2615
-4.6488 BUTT. -0.2616
-4.4727 BUTT? -0.2616
-4.9498 BUTTER -0.2990
-4.4727 BUTTER. -0.2616
-4.9498 BUTTHE -0.3010
-4.6488 BUTTHOLE -0.3010
-4.9498 BUTTHOLE, -0.3000
-4.9498 BUTTON -0.3010
-4.9498 BUTTON, -0.3010
-4.9498 BUTTS -0.3008
-4.6488 BUY -0.3007
-4.9498 BUYER. -0.2616
-3.3816 BY -0.2514
-4.9498 BY. -0.2616
-4.6488 BYE. -0.2616
-4.6488 C -0.2992
-4.9498 C! -0.2616
-4.9498 C'S. -0.2616
-4.6488 C, -0.2616
-4.9498 C-CHARACTER, -0.3000
-4.9498 C-CHRISTMAS, -0.3009
-4.9498 C-COME -0.3009
-4.9498 CABLE -0.3010
-4.9498 CACTUS, -0.3010
-4.9498 CAESAR. -0.2616
-4.9498 CAFETERIA -0.3010
-4.6488 CAKE. -0.2616
-3.7194 CALL -0.2468
-4.9498 CALL. -0.2616
-3.9084 CALLED -0.2527
-4.9498 CALLED! -0.2616
-4.9498 CALLED. -0.2616
-4.6488 CALLING -0.3005
-4.9498 CALLS -0.3000
-3.9956 CALM -0.3009
-3.9498 CAME -0.2967
-4.9498 CAME. -0.2616
-4.9498 CAMERAS. -0.2616
-4.9498 CAMP -0.2999
-4.9498 CAMPAIGN -0.2981
-4.9498 CAMPAIGN. -0.2616
-4.9498 CAMPAIGN? -0.2616
-4.9498 CAMPAIGNS? -0.2616
-2.9370 CAN -0.2435
-3.2338 CAN'T -0.2487
-4.9498 CAN'T! -0.2616
-4.9498 CAN'T, -0.3009
-4.6488 CAN'T. -0.2616
-4.9498 CAN'THIDE. -0.2616
-4.9498 CAN'TI -0.3008
-4.9498 CAN, -0.2967
-4.9498 CAN. -0.2616
-4.9498 CANCEL -0.2616
-4.9498 CANCER -0.2990
-4.9498 CANCER, -0.3009
-4.6488 CANNOT -0.3010
-4.9498 CAP -0.3008
-4.6488 CAPABLE -0.2595
-4.9498 CAPACITY? -0.2616
-4.9498 CAPITAL -0.3010
-4.6488 CAPTURED -0.2616
-4.9498 CAPTURES -0.2974
-4.4727 CAR -0.2613
-4.9498 CAR! -0.2616
-4.9498 CARD. -0.2616
-4.1047 CARE -0.2584
-4.6488 CARE, -0.2616
-4.4727 CARE. -0.2616
-4.9498 CARED -0.3005
-4.9498 CAREFUL -0.3000
-4.4727 CAREFUL, -0.3006
-4.9498 CAREFUL. -0.2616
-4.9498 CARES -0.3000
-4.9498 CARES? -0.3001
-4.9498 CARETAKER? -0.2616
-4.9498 CARING. -0.2616
-4.9498 CARPET! -0.2616
-4.9498 CARPET, -0.3010
-4.9498 CARPETS -0.2616
-4.9498 CARRY -0.2616
-4.6488 CARRY, -0.2606
-4.9498 CARS -0.2616
-4.9498 CARTING -0.2967
-4.9498 CARTON -0.2991
-4.6488 CARTOONS -0.2616
-4.9498 CASE -0.3002
-4.9498 CASE, -0.2616
-4.9498 CASH, -0.2616
-4.9498 CASTLE. -0.2616
-4.3478 CAT -0.2983
-4.9498 CATALOGS -0.2616
-4.6488 CATCH -0.2997
-4.9498 CATCHPHRASE, -0.3010
-4.9498 CATCHY -0.3008
-4.4727 CATS -0.2612
-4.9498 CATS! -0.2616
-4.9498 CATS. -0.2616
-4.9498 CATWALK, -0.2616
-4.4727 CAUSE -0.2595
-4.9498 CAVITY -0.2995
-4.9498 CAVITY. -0.2616
-4.9498 CC -0.2991
-4.9498 CELEBRATING? -0.2616
-4.9498 CELEBRATION. -0.2616
-4.9498 CELEBRITY, -0.2616
-4.9498 CELESTIAL -0.3010
-4.9498 CELLPHONES, -0.2616
-4.9498 CEMENTED -0.2997
-4.9498 CENTAUR -0.3003
-4.9498 CENTER -0.2991
-4.9498 CENTRAL -0.3010
-4.9498 CENTS -0.2616
-4.9498 CEREAL -0.2616
-4.9498 CEREAL, -0.2616
-4.6488 CERTAIN -0.2616
-4.9498 CERTAINLY -0.3003
-4.9498 CERTAINLY. -0.2616
-4.9498 CESIUM -0.2616
-4.9498 CESIUM, -0.3010
-4.9498 CESIUM. -0.2616
-4.9498 CETERA. -0.2616
-4.9498 CH -0.2616
-4.9498 CHAIR -0.2990
-4.4727 CHAMBER -0.2600
-4.9498 CHAMBER. -0.2616
-4.9498 CHAMPION -0.2616
-4.4727 CHANCE -0.2609
-4.9498 CHANCE! -0.2616
-4.4727 CHANGE -0.2970
-4.4727 CHANGED -0.2601
-4.6488 CHANNEL -0.2998
-4.9498 CHANNEL! -0.2616
-4.9498 CHANNEL. -0.2616
-4.6488 CHAOTIC -0.3010
-4.9498 CHAOTIC! -0.2616
-4.9498 CHAPTER -0.3010
-4.6488 CHARACTER -0.2607
-4.9498 CHARACTER. -0.2616
-4.9498 CHARACTERS. -0.2616
-4.2508 CHARGE -0.2595
-4.9498 CHARGE, -0.2616
-4.9498 CHARGE. -0.2616
-4.9498 CHARGING -0.3008
-4.9498 CHARISMATIC. -0.2616
-4.9498 CHASING -0.3010
-4.9498 CHAT -0.3002
-4.9498 CHEAP, -0.3000
-4.9498 CHEAT -0.3008
-4.0467 CHECK -0.2927
-4.9498 CHECK. -0.2616
-4.9498 CHECKING -0.3006
-4.9498 CHECKMATE. -0.2616
-4.3478 CHEMICAL -0.2615
-4.9498 CHERRY. -0.2616
-4.9498 CHEWING -0.2616
-4.9498 CHICKEN -0.3008
-4.9498 CHICKS, -0.3010
-4.9498 CHIEF -0.3010
-4.9498 CHIEF. -0.2616
-4.9498 CHILD -0.2997
-4.9498 CHILD! -0.2616
-4.6488 CHILD. -0.2616
-4.9498 CHILDREN -0.3003
-4.9498 CHILDREN! -0.2616
-4.9498 CHILDREN. -0.2616
-4.9498 CHILL. -0.2616
-4.9498 CHIMPANZEE, -0.2616
-4.9498 CHIPS. -0.2616
-4.9498 CHOICE. -0.2616
-4.4727 CHOKE -0.3007
-4.9498 CHOKING -0.3008
-4.6488 CHOOSE -0.2948
-4.6488 CHOSE -0.3010
-4.9498 CHOSE? -0.2616
-4.9498 CHRIS -0.3010
-4.9498 CHRIST -0.3004
-4.6488 CHRIST! -0.2605
-4.6488 CHRIST, -0.2613
-4.0467 CHRISTMAS -0.2599
-4.6488 CHRISTMAS! -0.2616
-4.2508 CHRISTMAS, -0.2611
-4.6488 CHRISTMAS. -0.2616
-4.9498 CHUNKS -0.2991
-4.9498 CHURRO -0.3010
-4.9498 CHUTES -0.2990
-4.9498 CIRCLE -0.2974
-4.9498 CIRCLE. -0.2616
-4.9498 CITIES, -0.2616
-4.9498 CITIZEN -0.3010
-4.9498 CIVICS -0.3004
-4.9498 CIVIL -0.3010
-4.9498 CLASS -0.2616
-4.4727 CLASS, -0.2612
-4.3478 CLASS. -0.2616
-4.6488 CLASS? -0.2616
-4.9498 CLASSES -0.3006
-4.9498 CLASSES. -0.2616
-4.3478 CLEAN -0.2983
-4.9498 CLEANING -0.3008
-4.2508 CLEAR -0.2612
-4.9498 CLEAR, -0.3010
-4.9498 CLEARLY -0.3010
-4.9498 CLEVER -0.3010
-4.9498 CLIMATE -0.3010
-4.9498 CLINIC. -0.2616
-4.9498 CLONES -0.3007
-4.9498 CLOSE. -0.2616
-4.9498 CLOSET, -0.2616
-4.9498 CLOSET. -0.2616
-4.3478 CLOTHES -0.2999
-4.9498 CLOTHING -0.3010
-4.4727 CLOUD -0.3010
-4.9498 CLOUDS -0.3010
-4.9498 CLOUDS! -0.2616
-4.9498 CLOWN -0.3010
-4.9498 CLOWN. -0.2616
-4.9498 CLUB! -0.2616
-4.9498 CLUB, -0.3010
-4.9498 CLUTTERING -0.3008
-4.9498 COAST -0.3010
-4.9498 COAST, -0.3010
-4.6488 COCAINE -0.2616
-4.9498 COCAINE. -0.2616
-4.3478 CODE -0.2970
-4.9498 COFFEE, -0.2616
-4.9498 COGNITION -0.3010
-4.9498 COIN -0.3010
-4.9498 COITUS, -0.2616
-4.6488 COLD -0.2616
-4.3478 COLD, -0.2616
-4.9498 COLI -0.3010
-4.9498 COLLAPSE. -0.2616
-4.9498 COLLECT -0.2616
-4.9498 COLLECTING -0.2995
-4.9498 COLLECTION -0.2616
-4.9498 COLLINS' -0.3010
-4.9498 COLLISION, -0.2616
-4.9498 COLON -0.3002
-4.9498 COLON! -0.2616
-4.9498 COLONIZE -0.3000
-4.9498 COLOR -0.3010
-4.3478 COM -0.2600
-4.9498 COM, -0.2616
-4.9498 COM. -0.2616
-4.9498 COMBINATION, -0.2616
-4.9498 COMBINE -0.3000
-3.0633 COME -0.2508
-4.9498 COME. -0.2616
-4.4727 COMES -0.3002
-4.9498 COMFORTABLE, -0.2616
-4.9498 COMFORTABLY -0.2999
-4.9498 COMFORTING -0.3010
-4.9498 COMIC -0.3010
-3.8359 COMING -0.2980
-4.6488 COMING! -0.2616
-4.3478 COMING, -0.2616
-4.9498 COMING. -0.2616
-4.9498 COMING?! -0.2616
-4.4727 COMMERCIAL. -0.2616
-4.9498 COMMERCIALS -0.3010
-4.9498 COMMERCIALS, -0.2616
-4.9498 COMMIT. -0.2616
-4.9498 COMMITTEE -0.2991
-4.9498 COMMUNICATION. -0.2616
-4.9498 COMMUNITY. -0.2616
-4.9498 COMPANION -0.2616
-4.9498 COMPANY -0.3010
-4.9498 COMPANY. -0.2616
-4.9498 COMPELS -0.3010
-4.9498 COMPETE -0.2999
-4.9498 COMPILER, -0.2616
-4.6488 COMPLETE -0.3009
-4.9498 COMPLETE! -0.2616
-4.6488 COMPLETELY -0.2613
-4.9498 COMPLICATED -0.3009
-4.9498 COMPLIMENTED -0.3010
-4.9498 COMPREHENSION. -0.2616
-4.9498 COMPROMISE! -0.2616
-4.4727 COMPUTER -0.2999
-4.9498 CON -0.3010
-4.9498 CONCEIVABLE -0.3010
-4.9498 CONCENTRATE -0.3002
-4.9498 CONCENTRATE. -0.2616
-3.9498 CONCENTRATED -0.2615
-4.6488 CONCEPT -0.2595
-4.9498 CONCEPTS, -0.2616
-4.9498 CONCEPTUAL -0.3010
-4.9498 CONCERTS. -0.2616
-4.9498 CONCISE, -0.3000
-4.9498 CONCLUSION -0.2616
-4.9498 CONCLUSION, -0.2978
-4.9498 CONDITIONS -0.3002
-4.9498 CONDUCTS -0.3010
-4.9498 CONFIDENCE. -0.2616
-4.9498 CONFLICT. -0.2616
-4.9498 CONFUSED -0.2616
-4.9498 CONFUSED! -0.2616
-4.9498 CONFUSED. -0.2616
-4.9498 CONFUSING -0.2990
-4.9498 CONNECT -0.3008
-4.9498 CONNECTED -0.2981
-4.9498 CONNECTING -0.2998
-4.6488 CONQUER -0.2576
-4.9498 CONSECUTIVE -0.3010
-4.3478 CONSIDER -0.2556
-4.6488 CONSIDERED -0.2603
-4.9498 CONSOLATION, -0.3010
-4.9498 CONSTRICT -0.2990
-4.9498 CONSTRUCTIVE. -0.2616
-4.9498 CONTAGIOUS -0.3010
-4.9498 CONTAIN -0.2978
-4.9498 CONTAINING -0.2616
-4.9498 CONTINENTAL -0.3010
-4.9498 CONTINUES -0.3008
-4.4727 CONTROL -0.2616
-4.9498 CONVENIENT? -0.2616
-4.6488 CONVERSATION -0.2616
-4.9498 CONVERSATION. -0.2616
-4.9498 CONVICTION. -0.2616
-4.9498 CONVINCING. -0.2616
-4.9498 CONVINCING? -0.2616
-4.9498 COOKIE -0.3010
-4.9498 COOKIES? -0.2616
-4.9498 COOKING -0.3008
-4.3478 COOL -0.2998
-4.1717 COOL, -0.2612
-3.9498 COOL. -0.2600
-4.9498 COORDINATES -0.2616
-4.9498 COPS -0.3002
-4.9498 CORN -0.2991
-4.9498 CORN! -0.2616
-4.6488 CORN? -0.2616
-4.9498 CORNER -0.3010
-4.9498 CORPORATIONS -0.3009
-4.9498 CORPORATIONS. -0.2616
-4.9498 CORPSE -0.3010
-4.9498 CORPSE, -0.2997
-4.9498 CORPSE. -0.2616
-4.9498 CORRECT! -0.2616
-4.9498 COUCH? -0.2616
-4.9498 COUGHING! -0.2616
-3.2966 COULD -0.2448
-4.9498 COULD. -0.2616
-4.1717 COULDN'T -0.2954
-4.9498 COUNTER. -0.2616
-4.9498 COUNTERACT -0.2974
-4.9498 COUNTING -0.2981
-4.9498 COUNTRIES -0.3010
-4.9498 COUNTRY -0.3004
-4.9498 COUNTRY. -0.2616
-4.4727 COURSE -0.2966
-4.9498 COURSE. -0.2967
-4.9498 COURT -0.3010
-4.9498 COURT! -0.2616
-4.6488 COURTHOUSE -0.3010
-4.6488 COVER -0.2614
-4.9498 COVER, -0.3008
-4.9498 COVERAGE -0.2616
-4.9498 COW, -0.3007
-4.9498 CPR. -0.2616
-4.9498 CPU -0.3002
-4.9498 CRAFTSMANSHIP. -0.2616
-4.1047 CRAP -0.2977
-4.0467 CRAP! -0.2616
-4.4727 CRAP, -0.2993
-3.9084 CRAP. -0.2610
-4.9498 CRAP? -0.2616
-4.6488 CRAPPED -0.2999
-4.9498 CRASH -0.2616
-4.9498 CRASHING -0.2616
-4.9498 CRAYONS, -0.2616
-3.8359 CRAZY -0.2576
-4.9498 CRAZY! -0.2616
-4.6488 CRAZY, -0.2613
-4.9498 CRAZY? -0.2616
-4.9498 CREAM -0.2997
-4.9498 CREAM. -0.2616
-4.9498 CREAM? -0.2616
-4.3478 CREATE -0.2581
-4.2508 CREATED -0.2535
-4.4727 CREATING -0.2941
-4.6488 CREATIVE -0.2991
-4.9498 CREATIVE. -0.2616
-4.9498 CREATOR -0.2991
-4.9498 CREATURE -0.3002
-4.4727 CREATURES -0.2604
-4.9498 CREEP -0.3010
-4.9498 CREEP, -0.3000
-4.6488 CREEPY -0.2616
-4.9498 CREEPY. -0.2616
-4.9498 CRIED -0.2990
-4.9498 CRIES? -0.2616
-4.9498 CRIME -0.2616
-4.9498 CRIMES -0.2991
-4.9498 CRIMINAL -0.2981
-4.9498 CRIMINAL. -0.2616
-4.1047 CRONENBERG -0.2995
-4.6488 CRONENBERGED -0.2608
-4.9498 CRONENBERGED. -0.2616
-4.9498 CRONENBERGS -0.2616
-4.9498 CRONENBERGS! -0.2616
-4.9498 CROSS -0.3010
-4.9498 CROWBAR, -0.2616
-4.9498 CROWBAR. -0.2616
-4.6488 CROWD -0.2997
-4.9498 CROWDS, -0.2616
-4.9498 CROWING -0.3010
-4.9498 CRUCIAL -0.3010
-4.9498 CRUEL -0.2616
-4.9498 CRUELTY. -0.2616
-4.6488 CRUSH -0.3006
-4.9498 CRUSHES -0.3009
-4.9498 CRY -0.3010
-4.9498 CRYING -0.3006
-4.9498 CRYSTAL -0.3010
-4.9498 CRYSTALLIZED -0.3010
-4.9498 CUBBIE. -0.2616
-4.9498 CUFF -0.3008
-4.6488 CURE -0.3000
-4.9498 CURED -0.3010
-4.9498 CURRENCY. -0.2616
-4.6488 CURSE -0.3010
-4.9498 CURSE, -0.2616
-4.9498 CURSED -0.3010
-4.6488 CURSES -0.3010
-4.9498 CURSES, -0.2616
-4.9498 CUSTODY -0.2616
-4.9498 CUSTODY, -0.2616
-4.9498 CUSTOMS -0.3010
-4.6488 CUSTOMS, -0.2616
-4.6488 CUT -0.2996
-4.6488 CUTE -0.3006
-4.9498 CUTE! -0.2616
-4.9498 CUTE, -0.2616
-4.9498 CUTE. -0.2999
-4.9498 CYBORGS -0.2616
-4.9498 CYCLE, -0.3000
-4.9498 CYNTHIA -0.2616
-4.9498 CYNTHIA. -0.2616
-4.9498 D -0.2616
-4.9498 D-D-D-DON'T -0.2616
-4.6488 D-DID -0.2975
-4.9498 DA. -0.2616
-4.9498 DACHSHUND? -0.2616
-4.1717 DAD -0.2612
-4.0467 DAD! -0.2612
-4.3478 DAD'S -0.2600
-3.6074 DAD, -0.2823
-3.7194 DAD. -0.2616
-4.6488 DAD? -0.2616
-4.6488 DADA. -0.2616
-4.6488 DADA? -0.2616
-4.9498 DADDY, -0.3005
-4.6488 DADDY. -0.2616
-4.9498 DAILY -0.3010
-4.9498 DALE! -0.2616
-4.9498 DAM. -0.2616
-3.9956 DAMN -0.3005
-4.9498 DAMN! -0.2616
-4.9498 DAMN. -0.2616
-4.3478 DANCE -0.2590
-4.3478 DANCE. -0.2616
-4.6488 DANCE? -0.2616
-4.9498 DANCING, -0.3010
-4.9498 DANCING. -0.2616
-4.9498 DANCING? -0.2616
-4.9498 DANGER. -0.2616
-4.9498 DANGEROUS. -0.2616
-4.9498 DANGERS -0.3008
-3.9956 DARK -0.3010
-4.9498 DARKENING, -0.2616
-4.9498 DATE -0.2978
-4.9498 DATE! -0.2616
-4.9498 DAUGHTER -0.2616
-4.9498 DAUGHTER, -0.3010
-4.9498 DAUGHTER. -0.2616
-4.9498 DAVID -0.3010
-4.1717 DAVIN! -0.2616
-4.6488 DAVIN'S -0.3008
-4.3478 DAVIN. -0.2616
-4.9498 DAVIN? -0.2616
-4.2508 DAWG. -0.2616
-3.9084 DAY -0.2511
-4.9498 DAY, -0.3010
-4.2508 DAY. -0.2616
-4.9498 DAY? -0.2616
-4.9498 DAYS -0.2990
-4.6488 DAYS, -0.2616
-4.6488 DAYS. -0.2616
-4.1047 DEAD -0.3005
-4.4727 DEAD! -0.2616
-4.3478 DEAD. -0.2616
-4.9498 DEAF -0.2616
-4.1047 DEAL -0.2607
-4.9498 DEAL. -0.3002
-4.9498 DEALING -0.3002
-4.9498 DEALS -0.2616
-4.9498 DEAR. -0.2616
-4.6488 DEATH -0.2616
-4.4727 DEATH! -0.2616
-4.3478 DEATH. -0.2616
-4.9498 DEBASE -0.3010
-4.9498 DECAPITATE -0.2974
-4.9498 DECAYING. -0.2616
-4.9498 DECIMATE -0.2974
-4.6488 DECISION. -0.2616
-4.9498 DECLARATION -0.2616
-4.9498 DECLINE. -0.2616
-4.9498 DECONSTRUCTING -0.2616
-4.9498 DEDUCTIBLE. -0.2616
-4.9498 DEEJAY, -0.3010
-4.2508 DEEP -0.3010
-4.9498 DEEP, -0.3008
-4.9498 DEEP-CORE -0.3010
-4.9498 DEEZY -0.2616
-4.9498 DEFENSIVE, -0.2616
-4.9498 DEFENSIVE. -0.2616
-4.9498 DEFIBULIZER, -0.3000
-4.9498 DEFIBULIZER? -0.2616
-4.9498 DEFIES -0.3002
-4.6488 DEFINITELY -0.2602
-4.9498 DEFINITION -0.2991
-4.9498 DEFORMED -0.3010
-4.9498 DEFRACULATE? -0.2616
-4.6488 DEFRACULATOR. -0.2616
-4.9498 DELAWARE. -0.2616
-4.9498 DELAYS. -0.2616
-4.9498 DELICIOUS. -0.2616
-4.9498 DELIGHT -0.2616
-4.9498 DELIVER -0.2616
-4.9498 DELUXE. -0.2616
-4.9498 DEMON? -0.3010
-4.6488 DEMONIC -0.2616
-4.9498 DEMONS -0.3002
-4.9498 DEMONS. -0.2616
-4.9498 DENIED -0.3007
-4.3478 DENNY -0.2594
-4.9498 DENT -0.2999
-4.9498 DEPARTMENT? -0.2616
-4.9498 DEPEND -0.3003
-4.9498 DEPENDING -0.3003
-4.9498 DEPP. -0.2616
-4.9498 DERBY. -0.2616
-4.9498 DERIVATIVE, -0.2616
-4.4727 DESERVE -0.2979
-4.9498 DESERVED -0.3010
-4.9498 DESETER -0.2616
-4.9498 DESIGN -0.2999
-4.6488 DESIGNED -0.2616
-4.9498 DESIRE, -0.3010
-4.6488 DESIRE? -0.2616
-4.9498 DESK -0.3004
-4.9498 DESK. -0.2616
-4.9498 DESTROY -0.3007
-4.9498 DESTROYED -0.2974
-4.9498 DESTROYED. -0.2616
-4.9498 DESTRUCTION. -0.3010
-4.9498 DESTRUCTIVE -0.3010
-4.9498 DETAIL -0.3010
-4.9498 DETAIL, -0.2616
-4.9498 DETAILS. -0.2616
-4.9498 DETECT -0.2990
-4.9498 DETECTIVE, -0.2998
-4.6488 DETECTIVE. -0.2616
-4.6488 DETECTS -0.2989
-4.9498 DEVELOP -0.3009
-4.9498 DEVELOPED -0.3010
-4.4727 DEVICE -0.2599
-4.9498 DEVICE, -0.3006
-4.6488 DEVICE. -0.2616
-4.6488 DEVIL -0.2616
-4.4727 DEVIL, -0.2614
-4.3478 DEVIL. -0.2616
-4.4727 DEVIL? -0.2616
-4.9498 DIABETES, -0.2616
-4.9498 DIABOLIC -0.3010
-4.9498 DIABOLICAL -0.3010
-4.9498 DIAMOND -0.3010
-4.9498 DICAPRIO'S -0.3010
-4.6488 DICK -0.2616
-4.9498 DICK. -0.2616
-3.3164 DID -0.2391
-4.3478 DID, -0.2569
-4.9498 DID. -0.2616
-3.5348 DIDN'T -0.2519
-4.9498 DIDN'T, -0.3009
-4.6488 DIDN'T. -0.2616
-4.0467 DIE -0.2603
-4.0467 DIE! -0.2614
-4.9498 DIE, -0.3008
-4.6488 DIE. -0.2616
-4.9498 DIED -0.2616
-4.9498 DIED, -0.2616
-4.9498 DIFFERENCE -0.2995
-4.9498 DIFFERENCES. -0.2616
-4.0467 DIFFERENT -0.2615
-4.9498 DIFFERENT! -0.2616
-4.9498 DIFFERENT, -0.3010
-4.9498 DIFFERENT. -0.2616
-4.9498 DIFFERENT? -0.2616
-4.9498 DIFFERENTLY -0.3010
-4.6488 DIGESTIVE -0.3010
-4.9498 DIGESTS -0.2616
-4.6488 DIGGING -0.2615
-4.2508 DIMENSION -0.2569
-4.9498 DIMENSION'S -0.3010
-4.9498 DIMENSION. -0.2616
-4.9498 DIMENSIONS -0.2616
-4.9498 DIMENSIONS, -0.2616
-4.9498 DIMENSIONS. -0.2616
-4.9498 DIMPLES -0.3010
-4.9498 DING-A-LING! -0.2616
-4.9498 DING-DONG! -0.2616
-4.9498 DINGDONGS -0.2616
-4.9498 DINNER. -0.2616
-4.9498 DINOSAUR. -0.2616
-4.6488 DIRECTED -0.3008
-4.9498 DIRECTION. -0.2616
-4.9498 DIS -0.3010
-4.9498 DISABILITY -0.3008
-4.6488 DISAGREE -0.2998
-4.6488 DISAGREE. -0.2616
-4.9498 DISAGREE? -0.2616
-4.9498 DISAPPEAR -0.3010
-4.9498 DISAPPEARING -0.3010
-4.9498 DISAPPOINTED -0.2999
-4.9498 DISARMING. -0.2616
-4.9498 DISASTER -0.2616
-4.9498 DISCLOSURE, -0.3008
-4.9498 DISCOLORATION -0.3003
-4.9498 DISCOLORED -0.3010
-4.9498 DISCOVER -0.2616
-4.6488 DISCOVERED -0.2935
-4.9498 DISCUSSED -0.3008
-4.9498 DISEASE. -0.2616
-4.9498 DISEASES. -0.2616
-4.9498 DISEASES? -0.2616
-4.9498 DISGUSTING! -0.2616
-4.9498 DISHES? -0.2616
-4.9498 DISHWASHER'S -0.2616
-4.9498 DISMISS. -0.2616
-4.9498 DISPARAGING -0.2616
-4.9498 DISPENSE -0.2616
-4.9498 DISPLAY -0.3004
-4.9498 DISRESPECT, -0.2616
-4.9498 DISRUPTED -0.3010
-4.9498 DISS. -0.2616
-4.9498 DISSOLVING -0.2999
-4.9498 DISTRACTION -0.2990
-4.9498 DISTRESS -0.2616
-4.9498 DISTRICT -0.2616
-4.9498 DIVORCE. -0.2616
-4.9498 DIVVY -0.3000
-4.9498 DNA'S -0.3008
-4.6488 DNA. -0.2616
-2.7567 DO -0.2254
-4.6488 DO! -0.2616
-4.1047 DO, -0.2606
-4.9498 DO-O-O-O-RS! -0.2616
-4.2508 DO. -0.2616
-3.9498 DO? -0.2616
-4.9498 DOC, -0.3009
-4.9498 DOC. -0.2616
-4.9498 DOCTOR! -0.2616
-4.9498 DOCTOR'S -0.2616
-4.9498 DOCTOR. -0.2616
-4.9498 DODGED -0.2978
-3.6945 DOES -0.2517
-3.7737 DOESN'T -0.2605
-4.1047 DOG -0.2573
-4.6488 DOG! -0.2616
-4.9498 DOG'S -0.3010
-4.9498 DOG. -0.2616
-4.1717 DOGS -0.2587
-4.6488 DOGS. -0.2616
-4.9498 DOIN'? -0.2616
-3.5185 DOING -0.2431
-4.4727 DOING, -0.3010
-4.4727 DOING? -0.2616
-4.9498 DOING?! -0.2616
-4.9498 DOLL -0.2616
-4.9498 DOLL'S -0.3010
-4.4727 DOLLAR -0.2616
-4.9498 DOLLARS -0.2616
-4.6488 DOLLARS. -0.2616
-4.6488 DOMINATED -0.2614
-4.9498 DOMINATION -0.2616
-4.9498 DOMINATION! -0.2616
-4.6488 DOMINATION. -0.2616
-2.7018 DON'T -0.2395
-4.6488 DON'T. -0.2616
-4.0467 DONE -0.2591
-4.6488 DONE! -0.2616
-4.9498 DONE, -0.2616
-4.4727 DONE. -0.2616
-4.9498 DONE?! -0.2616
-4.9498 DOOMED. -0.2616
-4.6488 DOOR, -0.2604
-4.9498 DOOR. -0.2616
-4.3478 DOORS -0.2604
-4.9498 DOORS! -0.2616
-4.3478 DOORS. -0.2611
-4.9498 DOR -0.3010
-4.9498 DORMANT. -0.2616
-4.0467 DOT -0.3007
-4.4727 DOT, -0.2616
-4.9498 DOT-COM -0.3010
-4.9498 DOUBTING -0.3003
-3.5519 DOWN -0.2541
-4.1717 DOWN! -0.2616
-3.9084 DOWN, -0.2600
-4.2508 DOWN. -0.2616
-4.9498 DOWN? -0.2616
-4.9498 DOY, -0.3010
-4.9498 DOZEN -0.2991
-3.9956 DR. -0.3010
-4.9498 DRAG -0.3009
-4.9498 DRAGGED -0.2967
-4.9498 DRAGGING -0.2616
-4.9498 DRAGON. -0.2616
-4.6488 DRAWING -0.2959
-4.0467 DREAM -0.2583
-4.3478 DREAM, -0.2605
-4.6488 DREAM. -0.2616
-4.9498 DREAMER. -0.2616
-4.9498 DREAMING -0.2616
-4.4727 DREAMS -0.2615
-4.9498 DREAMS! -0.2616
-4.3478 DREAMS, -0.2603
-4.9498 DREAMS. -0.2616
-4.4727 DRESSED -0.2601
-4.9498 DRILLING? -0.2616
-4.9498 DRINK. -0.2616
-4.9498 DRINKING -0.3010
-4.9498 DRINKING, -0.3009
-4.6488 DRIVE -0.2978
-4.9498 DRIVE! -0.2616
-4.3478 DROP -0.2554
-4.9498 DROPPED -0.3010
-4.9498 DROPPED. -0.2616
-4.4727 DROPPIN' -0.3010
-4.9498 DROPS -0.2974
-4.9498 DRUGSTORE. -0.2616
-3.9084 DRUM -0.2616
-4.9498 DRUMMER -0.3010
-4.6488 DRUMS -0.2615
-4.9498 DUB -0.3010
-4.9498 DUBS! -0.2616
-4.9498 DUCKS! -0.2616
-4.9498 DUDE, -0.3010
-4.4727 DUE -0.2584
-4.9498 DUE? -0.2616
-4.9498 DUH -0.3010
-4.9498 DUH. -0.2616
-4.6488 DUM-DUM. -0.2616
-4.2508 DUMB -0.2605
-4.6488 DUMB, -0.2616
-4.9498 DUMB. -0.2616
-4.9498 DUMBER. -0.2616
-4.6488 DUMMIES -0.2985
-4.9498 DUMP -0.3008
-4.9498 DUMPED -0.3008
-4.3478 DURING -0.2576
-4.9498 DWARF. -0.2616
-4.9498 DYING! -0.2616
-4.9498 DYING. -0.2616
-4.9498 DYNAMITE. -0.2616
-4.9498 E'S. -0.2616
-4.9498 E, -0.3010
-4.9498 E-NOMENON, -0.3010
-4.9498 E. -0.3010
-4.2508 EACH -0.3010
-4.9498 EAGER -0.3010
-4.9498 EAR, -0.2616
-4.9498 EARLIER -0.2616
-4.9498 EARLIER! -0.2616
-4.6488 EARLIER. -0.2616
-4.9498 EARLIER? -0.2616
-4.9498 EARLY -0.3010
-4.9498 EARLY. -0.2616
-4.9498 EARS! -0.2616
-4.1047 EARTH -0.2599
-4.1717 EARTH, -0.2581
-4.6488 EARTH. -0.2616
-4.9498 EARTH? -0.2616
-4.9498 EASIER. -0.2616
-4.9498 EAST -0.3010
-4.9498 EASTERN -0.3010
-4.2508 EASY -0.2576
-4.9498 EASY! -0.2616
-4.4727 EASY, -0.2602
-4.3478 EASY. -0.2616
-3.8037 EAT -0.2920
-4.6488 EATING -0.3010
-4.9498 ECCENTRIC -0.3009
-4.6488 EDGE. -0.2616
-4.9498 EDUCATIONAL -0.3010
-4.9498 EERILY -0.3010
-4.9498 EFFECT -0.2991
-4.9498 EFFECTS, -0.2616
-4.9498 EFFECTS. -0.2616
-4.9498 EFFICIENT -0.2616
-4.9498 EFFORT, -0.2616
-4.9498 EFFORT? -0.2616
-4.9498 EFFORTS -0.3003
-4.9498 EGGNOG, -0.3009
-4.9498 EGGNOG? -0.2616
-4.9498 EGGS. -0.2616
-4.6488 EH, -0.2975
-4.9498 EH. -0.2616
-4.4727 EIGHT -0.2616
-4.9498 EIGHT-PLANET -0.3010
-4.9498 EIGHTH -0.3010
-4.9498 EIGHTIES -0.3010
-4.9498 EIN-DOUCHE. -0.2616
-4.9498 EITHER -0.2616
-4.9498 EITHER, -0.3000
-4.9498 EITHER. -0.2616
-4.9498 ELABORATE -0.3010
-4.9498 ELECTRONIC -0.3010
-4.9498 ELECTRONICS. -0.2616
-4.9498 ELECTRONS -0.2616
-4.4727 ELEVEN -0.2605
-4.4727 ELSE -0.2965
-4.6488 ELSE'S -0.3010
-4.9498 ELSE'S. -0.2616
-4.3478 ELSE. -0.2616
-4.6488 EM -0.2986
-4.9498 EM, -0.3007
-4.6488 EM. -0.2616
-4.9498 EMBARRASSING. -0.2616
-4.6488 EMERGENCY -0.2616
-4.9498 EMERGENCY. -0.2616
-4.9498 EMPEROR -0.3010
-4.9498 EMPLOYEE -0.3010
-4.9498 EMPTY -0.2974
-4.6488 ENCHILADAS. -0.2616
-4.3478 END -0.2592
-4.6488 END. -0.2616
-4.9498 ENDED -0.3008
-4.9498 ENDGAME? -0.2616
-4.9498 ENDING. -0.2616
-4.9498 ENDOW -0.2978
-4.9498 ENDS -0.3006
-4.9498 ENEMIES. -0.2616
-4.9498 ENEMY -0.2616
-4.9498 ENEMY, -0.3000
-4.9498 ENEMY?! -0.2616
-4.6488 ENERGY -0.2595
-4.9498 ENGINE -0.3010
-4.6488 ENJOY -0.2999
-4.9498 ENLARGE -0.3009
-4.3478 ENOUGH -0.2977
-4.4727 ENOUGH, -0.2616
-4.3478 ENOUGH. -0.2616
-4.9498 ENRICHING -0.2616
-4.9498 ENTER -0.2616
-4.9498 ENTERED -0.2616
-4.3478 ENTIRE -0.2614
-4.6488 ENTIRELY -0.2616
-4.9498 ENTITLES -0.3000
-4.9498 ENTRAILS -0.3002
-4.9498 ENTRANCE -0.2981
-4.9498 ENTRANCE. -0.2616
-4.9498 EPIPHANIES -0.2616
-4.9498 EPISODE -0.2991
-4.6488 EQUAL -0.2584
-4.9498 EQUALLY -0.3010
-4.9498 EQUALS. -0.2616
-4.9498 EQUALS?! -0.2999
-4.9498 ERA -0.2991
-4.9498 ERECTION -0.2974
-4.9498 ERIC -0.3010
-4.9498 ERNEST -0.3010
-4.9498 ERRAND -0.2981
-4.9498 ESCAPE -0.3008
-4.6488 ESPECIALLY -0.2616
-4.9498 ET -0.3010
-4.3478 ETERNITY -0.2581
-4.9498 ETERNITY. -0.2616
-4.6488 ETHAN! -0.2616
-4.4727 ETHAN. -0.2616
-4.9498 ETHAN? -0.2616
-4.9498 EVACUATION -0.3010
-4.9498 EVALUATION. -0.2616
-4.6488 EVE, -0.2594
-3.4183 EVEN -0.2510
-3.7737 EVER -0.2593
-4.9498 EVER. -0.2616
-3.6276 EVERY -0.2610
-3.8706 EVERYBODY -0.2582
-4.9498 EVERYBODY'S -0.3004
-4.1717 EVERYBODY, -0.2593
-4.1717 EVERYBODY. -0.2616
-3.8037 EVERYONE -0.2562
-4.3478 EVERYONE'S -0.2606
-3.8037 EVERYTHING -0.2549
-4.2508 EVERYTHING'S -0.3008
-4.6488 EVERYTHING, -0.2616
-4.6488 EVERYTHING. -0.2616
-4.9498 EVERYTHING? -0.2616
-4.9498 EVIDENCE -0.2997
-4.6488 EVIL -0.3010
-4.9498 EVIL? -0.2616
-4.9498 EVOLUTIONARY -0.3010
-4.6488 EVOLVED -0.2613
-4.9498 EX -0.2990
-4.9498 EXACT -0.3010
-4.6488 EXACTLY -0.3006
-4.9498 EXAMINE -0.2974
-4.6488 EXCEPT -0.3000
-4.9498 EXCEPT, -0.2967
-4.9498 EXCITED -0.2616
-4.9498 EXCITED. -0.2616
-4.2508 EXCUSE -0.3005
-4.9498 EXECUTE. -0.2616
-4.9498 EXHALE -0.3010
-4.9498 EXHIBITS -0.3002
-4.9498 EXHIBITS? -0.2616
-4.9498 EXIST -0.2998
-4.3478 EXIST, -0.2616
-4.9498 EXIST. -0.2616
-4.9498 EXISTED -0.3002
-4.9498 EXISTED. -0.2616
-4.9498 EXISTENCE -0.2995
-4.9498 EXISTING. -0.2616
-4.9498 EXISTS -0.3003
-4.9498 EXOTIC -0.3010
-4.9498 EXPECT -0.3010
-4.9498 EXPEND -0.2974
-4.9498 EXPENSES -0.3002
-4.9498 EXPERIENCE -0.2991
-4.9498 EXPERIENCES? -0.2616
-4.9498 EXPERIMENT. -0.2616
-4.9498 EXPLODED! -0.2616
-4.9498 EXPLODED. -0.2616
-4.9498 EXPRESS -0.2997
-4.9498 EXPRESS? -0.2616
-4.9498 EXTRA -0.3010
-4.9498 EXTRACTED -0.3000
-4.9498 EXTREME -0.2616
-4.9498 EXTREME? -0.2616
-4.9498 EYE -0.3003
-4.1047 EYES -0.2607
-4.4727 EYES, -0.2616
-4.4727 EYES. -0.2616
-4.6488 F -0.2604
-4.9498 F. -0.2616
-4.9498 FABLED -0.3010
-4.4727 FACE -0.2592
-4.9498 FACE! -0.2616
-4.9498 FACE. -0.2616
-4.9498 FACEBOOK. -0.2616
-4.9498 FACES -0.2616
-4.2508 FACT -0.2602
-4.9498 FACT, -0.3010
-4.9498 FADES, -0.2616
-4.6488 FAIL -0.2614
-4.9498 FAILED. -0.2616
-4.9498 FAILING -0.3010
-4.9498 FAILURES -0.3002
-4.1717 FAIR -0.2967
-4.6488 FAIR. -0.2616
-4.9498 FAIR? -0.2616
-4.9498 FAIRS -0.3002
-4.9498 FAITH -0.2616
-3.8359 FAKE -0.3007
-4.9498 FAKEDOORS -0.3010
-4.3478 FALL -0.2601
-4.9498 FALL, -0.3010
-4.6488 FALLS -0.2604
-4.9498 FALLS? -0.2616
-4.9498 FAMILIAR? -0.2616
-4.9498 FAMILIES -0.3010
-4.6488 FAMILIES. -0.2616
-3.9498 FAMILY -0.2560
-4.6488 FAMILY! -0.2616
-4.4727 FAMILY'S -0.2616
-4.9498 FAMILY, -0.3009
-4.2508 FAMILY. -0.2616
-4.9498 FAMILY? -0.2616
-4.9498 FAMOUS -0.2616
-4.9498 FAMOUS. -0.2616
-4.9498 FANCY -0.3010
-4.9498 FANTASTIC, -0.3009
-4.9498 FANTASY -0.3010
-4.9498 FANTASY-TYPE -0.2616
-4.3478 FAR -0.2613
-4.9498 FAR, -0.3006
-4.9498 FAR. -0.2616
-4.9498 FARMERS -0.2991
-4.4727 FART. -0.2616
-4.9498 FARTS -0.3010
-4.6488 FASCINATING -0.2980
-4.9498 FASHIONABLE? -0.2616
-4.3478 FAST -0.2600
-4.9498 FAST! -0.2616
-4.9498 FAST, -0.3000
-4.9498 FAST-FOOD -0.3010
-4.9498 FAST. -0.2616
-4.4727 FASTER -0.3009
-4.9498 FASTER, -0.2616
-4.9498 FATE -0.2616
-4.1047 FATHER -0.2943
-4.6488 FATHER'S -0.3010
-4.6488 FATHER, -0.2616
-4.9498 FATHER-SON -0.3010
-4.6488 FATHER. -0.2616
-4.9498 FATHER? -0.2616
-4.6488 FAULT -0.2616
-4.6488 FAULT. -0.2616
-4.9498 FAVOR -0.2990
-4.9498 FAVOR. -0.2616
-4.9498 FAVORITE -0.3010
-4.9498 FAVORS. -0.2616
-4.6488 FEAR -0.2970
-4.9498 FEAR. -0.2616
-4.9498 FEARS -0.2616
-4.6488 FEE! -0.3010
-3.8359 FEEL -0.2564
-4.9498 FEEL, -0.2616
-4.4727 FEEL. -0.2616
-4.6488 FEEL?! -0.2616
-4.6488 FEELING -0.2997
-4.9498 FEET -0.3008
-4.9498 FEET, -0.2616
-4.9498 FELL -0.2999
-4.9498 FELLA. -0.2616
-4.9498 FELLAS! -0.2616
-4.6488 FELT -0.2616
-4.4727 FEMALE -0.3005
-4.4727 FEMALES -0.2607
-4.9498 FEMININE -0.2616
-4.9498 FEROCIOUS -0.3010
-4.9498 FERRARI'S -0.2999
-4.9498 FERTILIZED -0.3010
-4.9498 FETCH. -0.2616
-4.3478 FEW -0.3008
-4.6488 FI! -0.3010
-4.9498 FIDO. -0.2616
-4.9498 FIELD, -0.3010
-4.9498 FIELD. -0.2616
-4.9498 FIENNES -0.2999
-4.9498 FIFTH -0.3010
-4.9498 FIFTY -0.3010
-4.4727 FIGHT -0.2607
-4.6488 FIGHTING -0.3008
-4.9498 FIGHTING, -0.2616
-4.3478 FIGURE -0.2975
-4.9498 FIGURE. -0.2616
-4.9498 FIGURED -0.3006
-4.6488 FILE -0.2978
-4.6488 FILL -0.2970
-4.9498 FILLED -0.2616
-4.6488 FILLING -0.2991
-4.9498 FILM -0.3010
-4.9498 FINAL -0.3010
-4.4727 FINALLY -0.2616
-4.9498 FINALLY. -0.2616
-4.9498 FINANCIAL -0.3010
-3.8037 FIND -0.2510
-4.9498 FINE -0.3002
-4.4727 FINE! -0.2569
-4.4727 FINE, -0.2616
-4.9498 FINE-LOOKING -0.3010
-3.8037 FINE. -0.2576
-4.9498 FINGERPRINTS. -0.2616
-4.6488 FINGERS -0.2616
-4.6488 FINISH -0.2997
-4.9498 FINISHED -0.3010
-4.9498 FINISHED. -0.2616
-4.4727 FIRE -0.2590
-4.9498 FIRE! -0.2616
-4.6488 FIRED. -0.2616
-3.6945 FIRST -0.2572
-4.6488 FIRST, -0.2978
-4.6488 FIRST. -0.2616
-4.9498 FISH -0.2981
-4.9498 FISHING -0.2616
-4.9498 FISHY -0.3009
-4.9498 FIST -0.3010
-4.9498 FIT -0.3008
-4.9498 FIT. -0.2616
-3.7737 FIVE -0.2591
-4.9498 FIVE. -0.2616
-4.6488 FIX -0.3009
-4.9498 FIX. -0.2616
-4.9498 FIXED, -0.2999
-4.9498 FIXED. -0.2616
-4.9498 FLAPS -0.3004
-4.9498 FLAPS. -0.2616
-4.6488 FLARPING -0.2594
-4.9498 FLATTERED -0.2990
-4.9498 FLATTERING -0.2616
-4.9498 FLATTERING, -0.3010
-4.9498 FLEESEEKS -0.3010
-4.9498 FLIMFLAM -0.2616
-4.9498 FLIP -0.2999
-4.9498 FLIPPY -0.3010
-4.9498 FLOOR -0.3010
-4.9498 FLOOR? -0.2616
-4.6488 FLOW. -0.2616
-3.9956 FLU -0.2612
-4.6488 FLU, -0.2616
-4.3478 FLU-HATING -0.2616
-4.9498 FLU. -0.2616
-4.9498 FLURLOW, -0.3010
-4.6488 FLY -0.2616
-4.6488 FLYING -0.3010
-4.6488 FO! -0.3010
-4.9498 FO-HOME. -0.2616
-4.6488 FOCUS -0.3003
-4.3478 FOLLOW -0.2952
-4.9498 FOLLOW-THROUGH! -0.2616
-4.9498 FOLLOW-THROUGH, -0.2616
-4.9498 FOLLOW-THROUGH?! -0.2616
-4.9498 FOLLOWS -0.2974
-4.9498 FONDLERS -0.2616
-4.4727 FONDLERS. -0.2616
-4.6488 FONDLERS? -0.2616
-4.2508 FOOD -0.2581
-4.6488 FOOD. -0.2616
-4.9498 FOOD? -0.2616
-4.4727 FOOL -0.3008
-4.9498 FOOL. -0.2616
-4.9498 FOOT -0.2995
-4.9498 FOOTSTOOL, -0.2616
-2.7068 FOR -0.2350
-4.9498 FOR, -0.3010
-4.6488 FOR. -0.2616
-4.6488 FOR? -0.2616
-4.9498 FORBID -0.3010
-4.6488 FORCED -0.2616
-4.9498 FOREFRONT -0.2616
-4.9498 FOREMOST, -0.2978
-4.6488 FOREVER -0.2616
-4.3478 FOREVER. -0.2616
-4.4727 FORGET -0.2968
-4.9498 FORGIVE -0.3003
-4.9498 FORGIVEN, -0.2616
-4.9498 FORMS -0.2616
-4.9498 FORMULA -0.3010
-4.9498 FORWARD -0.2616
-4.9498 FORWARD, -0.2616
-4.9498 FOUGHT -0.3009
-4.9498 FOULED -0.3008
-4.2508 FOUND -0.2588
-4.9498 FOUNDATION -0.3002
-4.9498 FOUNTAINS -0.2616
-4.3478 FOUR -0.3008
-4.9498 FOUR. -0.2616
-4.9498 FOURTEEN -0.2616
-4.9498 FOURTEEN. -0.2616
-4.6488 FOURTY -0.3009
-4.9498 FOURTY! -0.2616
-4.9498 FOURTY. -0.2616
-4.9498 FRACULATION! -0.2616
-4.6488 FRANK -0.3010
-4.4727 FRANK. -0.2616
-4.6488 FRANK? -0.2616
-4.6488 FRAUD. -0.2616
-4.9498 FREAKING -0.3010
-4.3478 FREE -0.2561
-4.9498 FREE! -0.2616
-4.9498 FREE, -0.3010
-4.9498 FREE-FI -0.2981
-4.9498 FREE. -0.2616
-4.9498 FREELY. -0.2616
-4.9498 FREEZER, -0.2616
-4.4727 FRESH -0.3010
-4.9498 FRIDAY -0.2974
-4.3478 FRIEND -0.2967
-4.3478 FRIEND, -0.2616
-4.4727 FRIEND. -0.2616
-4.9498 FRIENDS -0.3010
-4.9498 FRIENDSHIP -0.2616
-4.9498 FRIENDSHIP. -0.2616
-4.9498 FROGS -0.3010
-3.0986 FROM -0.2414
-4.9498 FROM, -0.3010
-4.4727 FROM? -0.2616
-4.6488 FRONT -0.2616
-4.9498 FRONT. -0.2616
-4.9498 FROZE -0.3010
-4.6488 FROZEN -0.2981
-4.9498 FROZEN, -0.3006
-4.6488 FRUIT -0.2609
-4.9498 FRUITS. -0.2616
-4.6488 FRUSTRATING -0.2614
-4.9498 FRY. -0.2616
-4.9498 FRYING -0.3010
-3.9498 FUCK -0.2561
-4.9498 FUCK. -0.2616
-4.9498 FUCKIN' -0.3010
-4.3478 FUCKING -0.2616
-4.6488 FUCKS -0.2607
-4.4727 FUEL -0.2967
-4.9498 FULFILL -0.2997
-4.9498 FULFILL! -0.2616
-4.6488 FULFILLS -0.2615
-4.3478 FULL -0.2595
-4.9498 FULLY -0.3010
-4.6488 FUM! -0.2616
-4.9498 FUMBLING -0.3002
-3.9498 FUN -0.2945
-4.9498 FUN'S -0.3010
-4.0467 FUN. -0.2616
-4.9498 FUNCTIONALITY -0.2616
-4.9498 FUNDAMENTALS -0.2991
-4.9498 FUNDRAISER. -0.2616
-4.9498 FUNNY -0.3010
-4.4727 FUNNY. -0.2616
-4.9498 FUR -0.2995
-4.6488 FUTURE -0.2616
-4.9498 FUTURE! -0.2616
-4.4727 G -0.3004
-4.9498 G-G-GIVE -0.3009
-4.9498 G-GET -0.3006
-4.9498 G-GIVE -0.3003
-4.9498 G-GUY -0.3008
-4.9498 GADGETS -0.2990
-4.9498 GADGETS. -0.2616
-4.9498 GALAXY'S -0.3010
-4.9498 GALAXY, -0.2616
-4.9498 GALILEO -0.3006
-4.3478 GAME -0.2593
-4.9498 GAME! -0.2616
-4.9498 GAME, -0.3010
-4.9498 GAME-DAY -0.3010
-4.4727 GAME. -0.2616
-4.9498 GAME? -0.2616
-4.9498 GAME?! -0.2616
-4.9498 GAMES -0.3010
-4.9498 GAMES! -0.2616
-4.9498 GAMES, -0.3010
-4.9498 GAP. -0.2616
-4.9498 GAR -0.3010
-4.9498 GARAGE. -0.2616
-4.9498 GARBAGE, -0.3000
-4.9498 GARBAGE. -0.2616
-4.9498 GARBAGE? -0.2616
-4.6488 GARFIELD, -0.2974
-4.6488 GAS -0.2616
-4.9498 GAS. -0.2616
-4.9498 GAS? -0.2616
-4.9498 GATEWAY -0.2981
-4.1717 GAVE -0.2548
-4.9498 GAY, -0.2616
-4.4727 GAZORPAZORP -0.2614
-4.9498 GAZORPAZORP'S -0.3010
-4.9498 GAZORPAZORP-FUCKIN'- -0.3010
-4.6488 GAZORPAZORP. -0.2616
-4.9498 GAZORPAZORPFIELD, -0.2616
-4.3478 GAZORPAZORPFIELD. -0.2616
-4.4727 GAZORPIAN -0.2600
-4.9498 GAZORPIANS -0.3010
-4.9498 GEAR. -0.2616
-4.6488 GEE, -0.3010
-4.3478 GEEZ! -0.2616
-3.8359 GEEZ, -0.2969
-4.3478 GEEZ. -0.2615
-4.9498 GENDER -0.3010
-4.9498 GENDER. -0.2616
-4.9498 GENDERS -0.2995
-4.9498 GENE -0.3010
-4.9498 GENERATES -0.2616
-4.9498 GENERATOR -0.2981
-4.9498 GENES. -0.2616
-4.6488 GENETIC -0.2616
-4.4727 GENETICALLY -0.3010
-4.9498 GENETICALLY. -0.2616
-4.9498 GENITALIA?! -0.2616
-4.4727 GENIUS -0.2612
-4.3478 GENIUS. -0.2616
-4.6488 GENTLEMEN, -0.2616
-4.9498 GENTLEMEN? -0.2616
-4.9498 GERMANY -0.3008
-4.9498 GERP. -0.2616
-2.8131 GET -0.2334
-4.9498 GET, -0.2616
-4.9498 GETCHA? -0.2616
-4.4727 GETS -0.2581
-3.7194 GETTING -0.2568
-4.9498 GETTING? -0.2616
-4.9498 GHOST -0.3010
-4.9498 GHOSTBUSTERS, -0.2616
-4.9498 GI-I-I-I-IT -0.2616
-3.9498 GIANT -0.2601
-4.9498 GIANT'S -0.3010
-4.6488 GIANT, -0.2616
-4.9498 GIANT. -0.2616
-4.9498 GIANTS. -0.3010
-4.9498 GIFTED -0.3010
-4.4727 GIRL -0.2995
-4.4727 GIRL! -0.2616
-4.4727 GIRL. -0.2616
-4.9498 GIRLFRIEND. -0.2616
-4.4727 GIRLS -0.2600
-4.6488 GIRLS. -0.2616
-4.9498 GIRVONESK. -0.2616
-3.3266 GIVE -0.2442
-4.9498 GIVEN -0.2616
-4.6488 GIVES -0.2965
-4.3478 GIVING -0.2953
-4.9498 GIVING. -0.2616
-4.9498 GLAD -0.2999
-4.6488 GLARP -0.3010
-4.9498 GLASS -0.2616
-4.9498 GLEN, -0.2998
-4.9498 GLENN'S -0.3010
-4.9498 GLENN, -0.3010
-4.9498 GLOBALLY-COMPLIANT -0.2616
-4.9498 GLOVES -0.2616
-3.0360 GO -0.2481
-4.1717 GO! -0.2616
-4.1047 GO, -0.2612
-3.8706 GO. -0.2616
-4.9498 GO? -0.2616
-4.9498 GOBBA -0.3010
-4.9498 GOBLINS -0.2616
-4.2508 GOD -0.2995
-3.8359 GOD! -0.2615
-4.9498 GOD'S -0.3010
-3.8037 GOD, -0.2935
-3.6074 GOD. -0.2567
-4.9498 GOD? -0.2616
-4.9498 GODS. -0.2616
-4.3478 GOES -0.2608
-4.9498 GOES, -0.2967
-4.9498 GOES. -0.2616
-4.6488 GOGGLES -0.2616
-3.2596 GOING -0.2555
-4.6488 GOING. -0.2616
-4.3478 GOING? -0.2616
-4.6488 GOLDEN -0.3010
-4.4727 GOLDENFOLD -0.3003
-4.4727 GOLDENFOLD'S -0.3004
-4.6488 GOLDENFOLD, -0.2594
-4.4727 GOLDENFOLD. -0.2616
-4.3478 GOLF -0.3010
-4.2508 GONE -0.2572
-4.9498 GONE, -0.2616
-4.9498 GONE? -0.2616
-2.8325 GONNA -0.2544
-4.9498 GONORRHEA -0.3008
-4.9498 GONORRHEA! -0.2616
-3.2095 GOOD -0.2571
-4.3478 GOOD, -0.2615
-3.8706 GOOD. -0.2616
-4.9498 GOODBYE. -0.2616
-4.9498 GOODBYE? -0.2616
-4.9498 GOODNESS, -0.3008
-4.9498 GOOFBALL. -0.2616
-4.9498 GOOGLE! -0.2616
-4.9498 GOOGLED -0.3007
-2.9006 GOT -0.2330
-4.9498 GOT, -0.3000
-4.9498 GOT. -0.2616
-4.9498 GOT? -0.2616
-4.9498 GOTCHA! -0.2616
-4.9498 GOTS -0.2981
-3.8706 GOTTA -0.2594
-4.4727 GOTTEN -0.2609
-4.9498 GOVERNMENT'S -0.3010
-4.0467 GRAB -0.2585
-4.9498 GRADE. -0.2616
-4.9498 GRADES -0.2616
-4.9498 GRADES, -0.3010
-4.6488 GRANDFATHER'S -0.3009
-4.9498 GRANDFATHER? -0.2616
-3.6711 GRANDPA -0.2930
-4.6488 GRANDPA! -0.2616
-4.1717 GRANDPA, -0.2593
-4.9498 GRANDPA? -0.2616
-4.9498 GRANDSON -0.2616
-4.9498 GRANDSON'S -0.3010
-4.9498 GRAPPLING -0.3010
-4.9498 GRAVE -0.3010
-4.9498 GRAVE. -0.2616
-4.9498 GRAVES -0.2991
-3.9084 GREAT -0.2615
-4.9498 GREAT! -0.2616
-4.1717 GREAT, -0.2957
-4.0467 GREAT. -0.2614
-4.9498 GREATEST -0.2616
-4.9498 GREECE. -0.3010
-4.9498 GREED! -0.2616
-4.9498 GROSS -0.2990
-4.4727 GROSS! -0.2616
-4.9498 GROSS. -0.2976
-4.9498 GROUND -0.3009
-4.9498 GROUNDED! -0.2616
-4.9498 GROUP -0.2616
-4.9498 GROUPS -0.2997
-4.4727 GROW -0.2614
-4.6488 GROWING -0.3005
-4.9498 GROWTH -0.3010
-4.9498 GRUESOME -0.2616
-3.8037 GUESS -0.2515
-4.9498 GUEST, -0.2616
-4.9498 GUILT -0.2616
-4.9498 GUILTY -0.2991
-4.4727 GUILTY. -0.2578
-4.9498 GUITAR. -0.2616
-4.9498 GULLIBLE -0.2616
-4.6488 GUN -0.2616
-4.9498 GUN'S -0.3009
-4.6488 GUN. -0.2616
-4.9498 GUNS. -0.2616
-3.8706 GUY -0.2584
-4.9498 GUY! -0.2616
-4.4727 GUY'S -0.3010
-4.3478 GUY, -0.2965
-4.6488 GUY. -0.2616
-3.4874 GUYS -0.2527
-4.6488 GUYS! -0.2616
-4.6488 GUYS, -0.2614
-4.3478 GUYS. -0.2616
-4.9498 GUYS? -0.2616
-4.9498 GWENDOLYN -0.2616
-4.9498 H-H-HOW -0.2967
-4.9498 H-HE -0.3010
-4.9498 H-HEY, -0.3010
-4.6488 H-HOW -0.2616
-4.3478 HA -0.3010
-4.3478 HA! -0.2569
-4.6488 HA, -0.3009
-4.9498 HA-HA! -0.3010
-4.9498 HACK. -0.2616
-4.9498 HACK? -0.2616
-3.3935 HAD -0.2466
-4.2508 HADN'T -0.2616
-4.9498 HAIR, -0.3000
-4.6488 HAIRCUT? -0.2616
-4.9498 HAIRS. -0.2616
-4.9498 HAIRY. -0.2616
-4.3478 HALF -0.2590
-4.9498 HALF-GOD -0.3008
-4.9498 HALFWAY -0.3010
-4.9498 HALTED -0.2616
-4.9498 HALVES -0.3002
-4.9498 HALZINGERS, -0.3010
-4.9498 HAM -0.3009
-4.9498 HAM. -0.2616
-4.9498 HAMSTER -0.2999
-4.9498 HAMSTERS -0.3010
-4.0467 HAND -0.2928
-4.9498 HAND, -0.3010
-4.9498 HAND-SHAPED -0.3010
-4.9498 HAND? -0.2616
-4.9498 HANDFUL. -0.2616
-4.9498 HANDICAP -0.3010
-4.6488 HANDLE -0.2973
-4.9498 HANDLEBAR -0.2616
-4.9498 HANDLED -0.3010
-4.1717 HANDS -0.2608
-4.9498 HANDS! -0.2616
-4.9498 HANDS, -0.3006
-4.9498 HANDS. -0.2616
-4.4727 HANDS? -0.2616
-4.6488 HANDY -0.3010
-4.9498 HANG-UP. -0.2616
-4.9498 HANG-UPS -0.2999
-4.9498 HANG-UPS. -0.2616
-4.2508 HANGING -0.2611
-4.9498 HAPHAZARDLY, -0.2967
-4.4727 HAPPEN -0.2571
-4.9498 HAPPEN, -0.2616
-4.6488 HAPPEN. -0.2616
-4.6488 HAPPEN? -0.2616
-4.0467 HAPPENED -0.2581
-4.9498 HAPPENED. -0.2616
-4.4727 HAPPENING -0.2978
-4.9498 HAPPENING. -0.2616
-4.9498 HAPPENING? -0.2616
-4.6488 HAPPENS, -0.2616
-4.9498 HAPPINESS. -0.2616
-4.4727 HAPPY -0.3005
-4.6488 HAPPY. -0.2616
-4.9498 HAPPY? -0.2616
-4.9498 HARBOR. -0.2616
-4.1047 HARD -0.2971
-4.6488 HARD, -0.3005
-4.9498 HARD-CORE -0.3010
-4.6488 HARD. -0.2616
-4.9498 HARM! -0.2616
-4.9498 HARM. -0.2616
-4.9498 HARMLESS -0.3009
-4.9498 HAROLD! -0.2616
-4.9498 HARRUMPH. -0.2616
-3.5696 HAS -0.2482
-4.9498 HASN'T -0.3010
-4.9498 HASSLE. -0.2616
-4.9498 HASTE -0.3010
-4.6488 HAT -0.2998
-3.9498 HATE -0.2568
-4.9498 HATE, -0.3010
-4.9498 HATED -0.2997
-4.6488 HAUNTED -0.3008
-2.8359 HAVE -0.2358
-3.9956 HAVEN'T -0.2599
-4.9498 HAVIN' -0.2978
-3.7194 HAVING -0.2501
-3.0577 HE -0.2533
-4.9498 HE'D -0.3003
-4.0467 HE'LL -0.2990
-3.2871 HE'S -0.2476
-4.9498 HE? -0.2616
-3.9956 HEAD -0.2582
-4.9498 HEAD, -0.2976
-4.4727 HEAD. -0.2616
-4.9498 HEADLINES -0.2616
-4.9498 HEADS -0.2616
-4.9498 HEADS! -0.2616
-4.9498 HEALED -0.2616
-4.6488 HEALTH -0.2990
-3.8037 HEAR -0.2898
-4.4727 HEARD -0.2986
-4.9498 HEARD. -0.2616
-4.2508 HEART -0.2595
-4.9498 HEART, -0.3010
-4.9498 HEARTBREAK, -0.2616
-4.6488 HEAT -0.2616
-4.9498 HEAVEN -0.3008
-4.9498 HEAVYWEIGHT -0.3010
-4.9498 HECK, -0.3010
-4.9498 HECK? -0.2616
-4.9498 HECKLING -0.2997
-4.9498 HEDGES, -0.2616
-3.8359 HELL -0.2971
-4.9498 HELL'S -0.2616
-4.3478 HELL, -0.2613
-4.1047 HELL? -0.2616
-4.3478 HELL?! -0.2616
-4.9498 HELLO! -0.2616
-4.4727 HELLO, -0.3009
-4.9498 HELLO. -0.2616
-4.4727 HELLO? -0.2616
-3.5881 HELP -0.2490
-4.6488 HELP! -0.3009
-4.9498 HELP, -0.3000
-4.9498 HELP. -0.2616
-4.9498 HELPED -0.3003
-4.9498 HELPER. -0.2616
-4.3478 HELPING -0.2963
-4.9498 HEMINGWAY. -0.2616
-4.9498 HEN-PECKING -0.2616
-4.3478 HEPATITIS -0.3010
-4.1047 HER -0.2980
-4.4727 HER! -0.2616
-4.6488 HER. -0.2616
-4.6488 HER? -0.2616
-4.9498 HERBRAND-NEW. -0.2616
-3.2174 HERE -0.2473
-3.9956 HERE! -0.2616
-3.9084 HERE'S -0.2907
-4.9498 HERE'SHUMAN -0.3010
-3.5519 HERE, -0.2523
-3.5348 HERE. -0.2616
-4.1717 HERE? -0.2616
-4.6488 HEREBY -0.3010
-4.9498 HERO -0.3006
-4.9498 HERO, -0.3010
-4.4727 HEROES -0.2607
-4.6488 HEROES! -0.2616
-4.9498 HEROES, -0.2999
-4.9498 HESITATE, -0.2616
-4.9498 HEY -0.3006
-3.9498 HEY! -0.2578
-3.0255 HEY, -0.2796
-4.9498 HEY-OH! -0.3010
-4.2508 HEY. -0.2616
-4.9498 HI! -0.2616
-3.8706 HI, -0.2980
-4.4727 HI. -0.2603
-4.9498 HID -0.2998
-4.9498 HIDDEN -0.3010
-4.9498 HIDE! -0.2616
-4.4727 HIDE, -0.2998
-4.9498 HIDING. -0.2616
-4.2508 HIGH -0.2615
-4.9498 HIGH-CONCEPT -0.2616
-4.9498 HIGH-MAINTENANCE -0.3010
-4.9498 HIGH-ROAD -0.3010
-4.9498 HIGH-SCHOOL -0.3010
-4.9498 HIGHER -0.2974
-4.6488 HIGHEST -0.3010
-4.9498 HIGHNESS, -0.3010
-3.4874 HIM -0.2478
-4.3478 HIM! -0.2616
-4.4727 HIM, -0.2593
-3.8706 HIM. -0.2616
-4.3478 HIM? -0.2616
-4.9498 HIMSELF -0.2978
-4.9498 HIMSELF. -0.2616
-4.9498 HIRING -0.2616
-3.3816 HIS -0.2610
-4.9498 HISPANIC, -0.3010
-4.9498 HISTORY -0.3010
-4.9498 HISTORY. -0.2616
-4.4727 HIT -0.2973
-4.6488 HITLER -0.3010
-4.9498 HITLER, -0.3004
-4.9498 HITS -0.3010
-4.9498 HITS. -0.2616
-4.9498 HITTING -0.3003
-4.9498 HMM, -0.3008
-4.4727 HMM. -0.2975
-4.9498 HMM? -0.2616
-4.6488 HO, -0.3010
-4.9498 HOBBY. -0.2616
-3.7737 HOLD -0.2930
-4.9498 HOLD. -0.2616
-4.9498 HOLDING -0.2967
-4.9498 HOLDINGONE. -0.2616
-4.9498 HOLE -0.2999
-4.9498 HOLE, -0.3009
-4.9498 HOLE. -0.2616
-4.9498 HOLE? -0.2616
-4.9498 HOLES -0.2616
-4.9498 HOLIDAY -0.2995
-4.6488 HOLIDAY! -0.2616
-4.9498 HOLIDAY, -0.3009
-4.9498 HOLLYWOOD -0.2616
-3.6711 HOLY -0.3009
-3.8359 HOME -0.2536
-4.6488 HOME! -0.2616
-4.3478 HOME, -0.2999
-4.1047 HOME. -0.2615
-4.4727 HOME? -0.2616
-4.4727 HOMELESS -0.3008
-4.9498 HOMES? -0.2616
-4.9498 HOMEWORK -0.2995
-4.6488 HOMEWORK? -0.2616
-4.9498 HONEST -0.3002
-4.9498 HONESTLY. -0.2616
-4.9498 HONESTY -0.2990
-4.9498 HONEY, -0.3010
-4.4727 HONEY. -0.2609
-4.9498 HONK -0.3008
-4.9498 HONOR -0.2616
-4.9498 HONOR, -0.2998
-4.9498 HOOKED. -0.2616
-4.2508 HOPE -0.3005
-4.9498 HOPE, -0.2616
-4.9498 HOPING -0.2976
-4.9498 HORN, -0.3008
-4.2508 HORRIBLE -0.2616
-4.9498 HORRIBLE? -0.2616
-4.9498 HORROR -0.2616
-4.3478 HORSE -0.2616
-4.6488 HORSE. -0.2616
-4.9498 HORSEPLAY -0.3009
-4.9498 HORSEPOWER -0.2616
-4.9498 HORSES, -0.2616
-4.6488 HORSES. -0.2616
-4.9498 HOSPITAL -0.2616
-4.9498 HOSPITAL. -0.2616
-4.3478 HOT -0.3002
-4.9498 HOT, -0.2616
-4.9498 HOTEL -0.3010
-4.9498 HOUR -0.2616
-4.9498 HOUR. -0.2616
-4.9498 HOURS -0.3009
-4.9498 HOURS! -0.2616
-4.4727 HOURS, -0.2604
-4.6488 HOURS. -0.2616
-4.6488 HOURS? -0.2616
-4.1717 HOUSE -0.2616
-4.9498 HOUSE! -0.2616
-4.9498 HOUSE, -0.2616
-4.3478 HOUSE. -0.2616
-4.9498 HOUSE? -0.2616
-4.9498 HOUSE?! -0.2616
-3.0633 HOW -0.2331
-4.3478 HOW'S -0.2977
-4.9498 HOW? -0.2616
-4.2508 HUGE -0.2615
-4.9498 HUH -0.3005
-4.1717 HUH, -0.2614
-3.9956 HUH. -0.2598
-3.6945 HUH? -0.2603
-4.9498 HUH?! -0.3002
-3.8037 HUMAN -0.2602
-4.9498 HUMAN! -0.2616
-4.6488 HUMAN'S -0.3009
-4.9498 HUMAN-RIGHTS -0.3010
-4.6488 HUMAN. -0.2616
-4.9498 HUMAN? -0.2616
-4.9498 HUMANITY -0.2990
-4.6488 HUMANITY'S -0.3010
-4.4727 HUMANITY. -0.2616
-4.9498 HUMANITY? -0.2616
-4.6488 HUMANS -0.2997
-4.9498 HUMBLE -0.3010
-4.9498 HUMBLED. -0.2616
-4.9498 HUMBLING -0.2616
-3.8706 HUNDRED -0.2988
-4.4727 HUNGRY -0.3002
-4.6488 HUNGRY. -0.2616
-4.9498 HUNGRYFORAPPLES?! -0.2616
-4.9498 HURRY -0.2999
-4.9498 HURRY! -0.2616
-4.4727 HURRY. -0.2616
-4.9498 HURT -0.3010
-4.9498 HURT. -0.2616
-4.9498 HURTS! -0.2616
-4.9498 HURTS, -0.2616
-4.9498 HUSBAND -0.3009
-4.9498 HYDRATED. -0.2616
-2.0979 I -0.2343
-3.9498 I'D -0.2991
-3.2508 I'LL -0.2957
-2.5416 I'M -0.2355
-4.9498 I'M-A -0.3004
-3.6276 I'VE -0.2985
-4.6488 I, -0.2616
-3.7194 I-I -0.2560
-4.1717 I-I'M -0.2994
-3.8706 I-I-I -0.2958
-4.1047 I-I-I'M -0.3008
-4.6488 I-I-I-I -0.3009
-4.9498 I-I-I-I-I -0.3010
-4.9498 I-I-I-IF -0.2999
-4.9498 I-I-I-IT'LL -0.3003
-4.9498 I-I-I-LOOK -0.2616
-4.9498 I-IF -0.2967
-4.9498 I-IS -0.3010
-4.9498 I-IT -0.3004
-4.4727 I-IT'S -0.3008
-4.9498 I-LITTLE -0.2616
-4.9498 I-TOLD-YOU -0.3010
-4.3478 I? -0.2616
-4.9498 I?! -0.2616
-4.9498 IAMFINALLY -0.3010
-4.6488 ICE -0.3010
-3.9498 IDEA -0.2550
-4.4727 IDEA, -0.2613
-4.2508 IDEA. -0.2616
-4.9498 IDEA? -0.2616
-4.9498 IDENTICAL. -0.2616
-4.4727 IDIOT -0.3003
-4.6488 IDIOT! -0.2616
-4.9498 IDIOT, -0.2616
-4.6488 IDIOT. -0.2616
-4.9498 IDIOT? -0.2616
-4.4727 IDIOTS -0.2602
-4.9498 IDIOTS! -0.2616
-4.9498 IDIOTS. -0.2616
-2.9860 IF -0.2321
-4.6488 IGNORE -0.3009
-4.9498 II. -0.2616
-4.9498 ILL -0.3010
-4.9498 ILL-MANNERED. -0.2616
-4.9498 IMAGINARIAN. -0.2616
-4.6488 IMAGINE -0.3000
-4.2508 IMPORTANT -0.2611
-4.6488 IMPORTANT, -0.2616
-4.9498 IMPORTANT. -0.3007
-4.6488 IMPORTANTLY, -0.2604
-4.9498 IMPOSE -0.2616
-4.9498 IMPOSSIBILITY. -0.2616
-4.9498 IMPOSSIBLE, -0.3010
-4.9498 IMPOTENT! -0.2616
-4.9498 IMPRESS -0.3009
-4.6488 IMPRESSION -0.2616
-4.9498 IMPROVISATIONAL -0.3010
-4.9498 IMPROVISE. -0.2616
-4.9498 IMPROVISOR. -0.2616
-4.9498 IMPULSES, -0.3010
-2.5788 IN -0.2427
-4.1717 IN, -0.2536
-4.9498 IN-INTO -0.2978
-4.9498 IN. -0.2616
-4.9498 INAPPROPRIATE. -0.2616
-4.2508 INCEPT -0.2615
-4.9498 INCEPTING -0.2995
-4.9498 INCEPTING? -0.2616
-4.9498 INCEPTION -0.3009
-4.9498 INCEPTION, -0.3006
-4.9498 INCEPTION? -0.2616
-4.9498 INCEPTOR, -0.2990
-4.9498 INCEPTORS -0.2616
-4.9498 INCIDENT. -0.2616
-4.9498 INCLUDED, -0.3010
-4.6488 INCLUDING -0.2978
-4.9498 INCONTINENT, -0.2616
-4.9498 INCREASINGLY -0.2616
-4.9498 INCREDIBLE. -0.2616
-4.6488 INCREDIBLY -0.3010
-4.6488 INCREMENT -0.2980
-4.9498 INCUBATION -0.3010
-4.9498 INDIAN -0.3010
-4.9498 INDIANS! -0.2616
-4.9498 INDIVIDUAL. -0.2616
-4.9498 INDIVIDUALS. -0.2616
-4.9498 INEVITABLE! -0.2616
-4.9498 INEVITABLE. -0.2616
-4.9498 INEVITABLY, -0.2616
-4.9498 INFECTED! -0.2616
-4.2508 INFINITE -0.3010
-4.9498 INFINITY'S -0.2978
-4.6488 INFLUENCE -0.2969
-4.9498 INFO -0.3007
-4.6488 INFORMATION -0.2993
-4.9498 INGREDIENT -0.2616
-4.9498 INJURING -0.2616
-4.9498 INNOCENCE, -0.2616
-4.9498 INNOCENT -0.3008
-4.3478 INSANE -0.3002
-4.6488 INSANE! -0.2616
-4.9498 INSANE. -0.2616
-4.9498 INSECT -0.3010
-4.9498 INSECURE -0.2616
-4.9498 INSECURE. -0.2616
-4.6488 INSECURITY. -0.2616
-3.5185 INSIDE -0.2422
-4.9498 INSIDE! -0.2616
-4.9498 INSIDE, -0.2616
-4.9498 INSIDE? -0.2616
-4.9498 INSIDES -0.2991
-4.9498 INSIDES. -0.2616
-4.9498 INSTANCE -0.2616
-4.9498 INSTANTLY -0.2616
-4.9498 INSTANTLY. -0.2616
-4.3478 INSTEAD -0.2980
-4.9498 INSTEAD, -0.2999
-4.9498 INSULIN, -0.2616
-4.9498 INSULTING -0.3009
-4.9498 INSURANCE -0.2616
-4.4727 INTELLIGENT -0.3010
-4.9498 INTENSE -0.3010
-4.9498 INTENTIONALLY -0.2616
-4.9498 INTER-GENERATIONAL -0.3010
-4.4727 INTERDIMENSIONAL -0.2616
-4.9498 INTERESTED -0.2616
-4.9498 INTERESTING -0.3010
-4.4727 INTERESTING, -0.2616
-4.4727 INTERESTING. -0.2616
-4.9498 INTERNAL -0.2616
-4.9498 INTERNALLY -0.2616
-4.9498 INTERNET -0.2997
-4.9498 INTERRUPT -0.3010
-4.6488 INTERRUPTING! -0.2616
-4.9498 INTERSTELLAR -0.3010
-4.9498 INTERVENE. -0.2616
-4.9498 INTERVENING -0.3002
-4.9498 INTERVENING. -0.2616
-4.9498 INTESTINE -0.2616
-4.9498 INTESTINE! -0.2616
-4.9498 INTESTINES -0.3002
-4.9498 INTIMIDATING. -0.2616
-3.2508 INTO -0.2492
-4.6488 INTRODUCE -0.2967
-4.9498 INVASION -0.2616
-4.9498 INVENT -0.3010
-4.9498 INVENTED -0.2981
-4.9498 INVENTORY. -0.2616
-4.9498 INVESTIGATE. -0.2616
-4.6488 INVITATION -0.2981
-4.9498 INVOLVES -0.2616
-4.9498 INVOLVING -0.3010
-4.6488 IONIC -0.2616
-4.9498 IPAD. -0.2616
-4.9498 IRRESISTIBLE -0.2981
-4.9498 IRRESPONSIBLE -0.3010
-4.9498 IRRESPONSIBLE, -0.3009
-4.9498 IRRESPONSIBLE?! -0.2967
-2.4627 IS -0.2113
-4.4727 IS! -0.2616
-4.1717 IS, -0.2591
-3.8706 IS. -0.2608
-4.2508 IS? -0.2616
-3.6074 ISN'T -0.2528
-4.9498 ISN'T. -0.2616
-4.9498 ISSUE -0.3002
-4.9498 ISSUE. -0.2616
-2.6174 IT -0.2311
-3.6488 IT! -0.2611
-4.4727 IT'D -0.2997
-4.2508 IT'LL -0.2591
-2.5957 IT'S -0.2307
-4.6488 IT'S, -0.3009
-4.9498 IT'SIT'STOO -0.3010
-3.3370 IT, -0.2584
-3.1047 IT. -0.2601
-3.6488 IT? -0.2616
-4.9498 ITALY. -0.3010
-4.4727 ITEMS -0.2598
-4.9498 ITEMS? -0.2616
-4.1717 ITS -0.3010
-4.9498 ITSELF -0.3010
-4.9498 ITUNES-GIFT-CARD-AS-A-HOLIDAY- -0.2616
-4.9498 J -0.2616
-4.9498 J, -0.3010
-4.9498 J-J -0.3007
-4.9498 J-J-J -0.2998
-4.9498 J-JESSICA -0.3010
-4.9498 J-JUST -0.3002
-4.9498 JACKIE! -0.2616
-4.4727 JACOB -0.2995
-4.2508 JACOB. -0.2616
-4.9498 JACOB? -0.2616
-4.9498 JACOBS -0.2990
-4.9498 JACOBS. -0.2616
-4.6488 JAMBA -0.3010
-4.9498 JAMIE -0.3007
-4.9498 JAPANESE -0.3010
-4.6488 JAR. -0.2616
-4.9498 JAR? -0.2616
-4.9498 JE-JESSICA. -0.2616
-4.9498 JEALOUS -0.2991
-4.9498 JEALOUSY -0.3010
-4.3478 JELLY -0.3010
-4.9498 JELLY. -0.2616
-4.9498 JEOPARDY. -0.2616
-4.9498 JERK! -0.2616
-3.8359 JERRY -0.2608
-4.1047 JERRY! -0.2615
-4.0467 JERRY'S -0.2576
-3.4585 JERRY, -0.2457
-3.4727 JERRY. -0.2616
-4.0467 JERRY? -0.2616
-4.9498 JERRY?! -0.2616
-4.3478 JESSICA -0.3006
-4.6488 JESSICA! -0.2616
-4.6488 JESSICA'S -0.3004
-4.9498 JESSICA, -0.3004
-3.8706 JESSICA. -0.2616
-4.6488 JESSICA? -0.2616
-4.2508 JESUS -0.3010
-4.9498 JESUS! -0.3010
-4.6488 JESUS. -0.2614
-4.9498 JEWS -0.3003
-4.9498 JIGGLE -0.3000
-4.2508 JOB -0.2593
-4.9498 JOB! -0.2616
-4.4727 JOB, -0.3000
-4.2508 JOB. -0.2616
-4.9498 JOB? -0.2616
-4.9498 JOHN, -0.2616
-4.9498 JOHN. -0.2616
-4.9498 JOHNNY -0.3010
-4.9498 JOHNSON'S -0.3010
-4.9498 JOHNSON, -0.2616
-4.6488 JOHNSON. -0.2616
-4.6488 JOIN -0.2616
-4.9498 JOINED -0.2616
-4.9498 JOINING -0.3010
-4.9498 JOKING -0.3009
-4.9498 JOLLY -0.3009
-4.9498 JONES, -0.2616
-4.9498 JOURNEY -0.2616
-4.9498 JOURNEY'S -0.3007
-4.9498 JOYCE, -0.3005
-4.9498 JOYCE. -0.3010
-4.1717 JR. -0.2616
-4.4727 JR.! -0.2616
-4.9498 JR.'S -0.3010
-4.6488 JR., -0.2614
-4.4727 JR.? -0.2616
-4.9498 JR.?! -0.2616
-4.9498 JU -0.3001
-4.9498 JUDGE, -0.3000
-4.9498 JUDGE. -0.2616
-4.9498 JUDGED -0.3009
-4.9498 JUDGING -0.3008
-4.9498 JUDGING. -0.2616
-4.9498 JUDGMENT -0.2616
-4.9498 JUICE -0.2995
-4.9498 JUICE, -0.2616
-4.6488 JUICE. -0.2616
-4.9498 JUICE? -0.2616
-4.9498 JUICY -0.3009
-4.9498 JULIUS -0.3010
-4.6488 JUMP -0.3005
-4.9498 JUPITER -0.2616
-4.9498 JURY -0.2616
-2.6826 JUST -0.2260
-4.6488 JUST, -0.2616
-4.9498 JUSTASPLANNED. -0.2616
-4.9498 JUSTGET -0.2981
-4.9498 K, -0.2616
-4.9498 KANE. -0.2616
-3.6276 KEEP -0.2568
-4.6488 KEEPING -0.3007
-4.4727 KEEPS -0.3008
-4.9498 KENTUCKY? -0.2616
-4.6488 KEPT -0.3003
-4.6488 KEVIN -0.3009
-4.4727 KID -0.2591
-4.1717 KID, -0.2598
-4.6488 KID. -0.2616
-3.9498 KIDDING -0.3005
-4.4727 KIDDING. -0.2616
-4.9498 KIDDING? -0.2616
-4.9498 KIDNEYS -0.3010
-4.4727 KIDS -0.3006
-4.9498 KIDS, -0.2990
-4.6488 KIDS. -0.2616
-3.8706 KILL -0.2968
-4.9498 KILL. -0.2616
-4.4727 KILLED -0.2985
-4.9498 KILLED. -0.2616
-4.6488 KILLER. -0.2616
-4.2508 KILLING -0.2592
-3.4874 KIND -0.2562
-4.9498 KIND. -0.2616
-4.9498 KIND? -0.2616
-4.3478 KINDS -0.2991
-4.3478 KING -0.3005
-4.9498 KINGDOM, -0.2616
-4.9498 KINGDOM. -0.2616
-4.9498 KISSING -0.2978
-4.9498 KITTIES -0.2981
-4.9498 KNEES. -0.2616
-4.9498 KNEW -0.3010
-4.6488 KNIFE -0.2600
-4.9498 KNIVES -0.3008
-4.6488 KNIVES. -0.2616
-4.1047 KNOCK -0.2985
-4.6488 KNOCK, -0.3010
-4.9498 KNOCK-OFF -0.2991
-4.9498 KNOCK. -0.2616
-4.9498 KNOCKED -0.3008
-4.9498 KNOT -0.3004
-2.9455 KNOW -0.2331
-2.9286 KNOW, -0.2262
-3.8037 KNOW. -0.2603
-3.6488 KNOW? -0.2616
-4.9498 KNOWLEDGE -0.3010
-4.4727 KNOWN -0.2612
-4.6488 KNOWS -0.2967
-4.9498 KOALA -0.3010
-4.9498 KOREA, -0.2616
-4.9498 KOREA. -0.2616
-4.6488 KRISTEN -0.3010
-4.9498 L -0.2616
-4.9498 L-LET'S -0.3008
-4.9498 LAB, -0.2616
-4.9498 LACK -0.2991
-4.9498 LADDERS. -0.2616
-4.3478 LADIES -0.2988
-4.6488 LADIES, -0.2614
-4.6488 LADY -0.2616
-4.9498 LADY'S -0.2616
-4.9498 LADY. -0.2616
-4.9498 LAID? -0.2616
-4.9498 LAME! -0.2616
-4.9498 LAME. -0.2616
-4.9498 LAME? -0.2616
-4.6488 LAND -0.2967
-4.4727 LAND. -0.2614
-4.9498 LANDED -0.2974
-4.9498 LANGUAGER. -0.2616
-4.9498 LAPTOPS. -0.2616
-4.6488 LARGE -0.3010
-4.6488 LASAGNA. -0.2616
-4.9498 LASERS. -0.2616
-3.8037 LAST -0.2611
-4.9498 LAST! -0.3009
-4.9498 LATE -0.2981
-4.9498 LATE, -0.2616
-4.9498 LATE? -0.2616
-4.9498 LATER -0.2999
-4.6488 LATER, -0.3000
-4.3478 LATER. -0.2616
-4.9498 LATINO -0.3010
-4.9498 LAUGH? -0.2616
-4.9498 LAUNCH -0.2616
-4.9498 LAUNDRY -0.3002
-4.9498 LAUNDRY. -0.2616
-4.9498 LAVA! -0.2616
-4.9498 LAW -0.2991
-4.9498 LAWS -0.3003
-4.9498 LAY -0.2978
-4.9498 LEAD -0.2981
-4.9498 LEAD. -0.2616
-4.9498 LEADING -0.3010
-4.9498 LEAGUE. -0.2616
-4.9498 LEAK, -0.2616
-4.2508 LEARN -0.2581
-4.1717 LEARNED -0.2559
-4.9498 LEARNHOW -0.2981
-4.6488 LEARNING -0.2616
-4.9498 LEASH. -0.2616
-3.8359 LEAST -0.2873
-3.8706 LEAVE -0.2567
-4.6488 LEAVE. -0.2609
-4.9498 LEAVES, -0.2616
-4.4727 LEAVING -0.2958
-4.6488 LEAVING. -0.2616
-4.9498 LEDGE. -0.2616
-4.1047 LEFT -0.2996
-4.4727 LEFT, -0.2998
-4.6488 LEFT. -0.2616
-4.9498 LEG -0.2995
-4.9498 LEGALLY -0.2616
-4.4727 LEGS -0.3008
-4.9498 LEGS, -0.2616
-4.6488 LEGS. -0.2616
-4.9498 LEISURELY -0.3010
-4.9498 LENGTHS -0.2981
-4.9498 LEONARD, -0.2990
-4.9498 LEONARD. -0.2616
-4.9498 LEPRECHAUN? -0.2616
-4.6488 LESS -0.2991
-4.9498 LESSON -0.3008
-4.9498 LESSON. -0.2616
-3.3588 LET -0.2472
-3.3588 LET'S -0.2960
-4.6488 LETS -0.2997
-4.9498 LETTERMAN -0.3007
-4.9498 LETTERMAN? -0.2616
-4.9498 LETTING -0.3006
-4.9498 LEVER -0.2616
-4.9498 LEVER, -0.2616
-4.9498 LEVER. -0.2616
-4.6488 LI -0.2609
-4.9498 LIBERTIES! -0.2616
-4.9498 LID -0.2616
-4.9498 LIE! -0.2616
-3.8706 LIFE -0.2547
-4.9498 LIFE! -0.2616
-4.6488 LIFE'S -0.3007
-4.3478 LIFE, -0.2616
-3.9956 LIFE. -0.2616
-4.9498 LIFE? -0.2616
-4.9498 LIFELESS -0.3010
-4.9498 LIGHT. -0.2616
-4.9498 LIGHTEN -0.3010
-4.9498 LIGHTER. -0.2616
-4.9498 LIGHTHOUSE, -0.2616
-2.8670 LIKE -0.2297
-3.6488 LIKE, -0.2452
-4.6488 LIKE? -0.2616
-4.9498 LIKEAN -0.3010
-4.6488 LIKED -0.2998
-4.9498 LIMIT? -0.2616
-4.4727 LINE -0.2971
-4.9498 LINKING -0.3010
-4.9498 LION -0.3010
-4.9498 LION. -0.2616
-4.9498 LIONS. -0.2616
-4.9498 LIST -0.2991
-3.9956 LISTEN -0.2536
-3.8037 LISTEN, -0.2561
-4.9498 LISTEN. -0.2616
-4.9498 LISTENED -0.2981
-4.9498 LISTENING -0.2616
-4.9498 LITERATURE -0.3002
-3.2686 LITTLE -0.2574
-4.9498 LITTLE, -0.3003
-4.9498 LITTLE-PEOPLE -0.3010
-4.6488 LITTLE. -0.2616
-4.9498 LITTLE? -0.2616
-4.1047 LIVE -0.2589
-4.9498 LIVE, -0.2616
-4.6488 LIVE. -0.2616
-4.9498 LIVER'S -0.3010
-4.9498 LIVER, -0.3000
-4.6488 LIVER. -0.2616
-4.4727 LIVES -0.2602
-4.9498 LIVES, -0.2616
-4.4727 LIVES. -0.2616
-4.9498 LIVES? -0.2616
-4.2508 LIVING -0.2616
-4.9498 LIVING-ROOM -0.3010
-4.9498 LOAD. -0.2616
-4.9498 LOADS! -0.3010
-4.4727 LOADS. -0.2616
-4.9498 LOCATED -0.3006
-4.9498 LOCKBOX -0.2616
-4.9498 LOCKED -0.2616
-4.9498 LOGIC -0.2616
-4.9498 LOGIC, -0.3007
-4.9498 LONELY -0.3010
-4.1717 LONG -0.2615
-4.9498 LONG, -0.3010
-4.6488 LONG. -0.2616
-4.6488 LONGER -0.2616
-3.2777 LOOK -0.2572
-4.6488 LOOK! -0.2616
-3.5519 LOOK, -0.2489
-4.3478 LOOK. -0.2616
-4.4727 LOOKED -0.3005
-4.6488 LOOKIN' -0.3010
-4.2508 LOOKING -0.2612
-3.6945 LOOKS -0.3002
-4.9498 LOOKS. -0.2616
-4.9498 LOOSER -0.2616
-4.9498 LOOSER. -0.2616
-4.9498 LOP -0.3010
-4.9498 LORD, -0.3010
-4.6488 LORENZO -0.3010
-4.9498 LOS -0.3010
-4.2508 LOSE -0.2563
-4.9498 LOSER, -0.2616
-4.2508 LOSING -0.2999
-4.9498 LOSSES. -0.2616
-4.4727 LOST -0.2960
-3.7457 LOT -0.2589
-4.9498 LOT! -0.2616
-4.9498 LOT. -0.2616
-4.9498 LOT? -0.2616
-4.3478 LOUD -0.2976
-4.9498 LOUD, -0.3010
-4.9498 LOUD. -0.2616
-3.1864 LOVE -0.2420
-4.9498 LOVE. -0.2616
-4.6488 LOVER. -0.2616
-4.4727 LOVES -0.2609
-4.9498 LOVES? -0.2616
-4.4727 LOVING -0.2960
-4.9498 LOW. -0.2616
-4.9498 LOW? -0.2616
-4.6488 LOWER -0.2616
-4.9498 LUBBA -0.3010
-4.9498 LUCIUS. -0.2616
-4.9498 LUCK -0.3009
-4.6488 LUCK, -0.2967
-4.6488 LUCK. -0.2616
-4.4727 LUCKY -0.2981
-4.9498 LUMBERING -0.3010
-4.9498 LUNCH, -0.2990
-4.6488 LUNCH. -0.2616
-4.9498 LUNCH? -0.2616
-4.6488 LUNGS -0.3008
-4.9498 LUST! -0.2616
-4.9498 LYING -0.2981
-4.9498 M -0.2616
-4.9498 M-M-MORTY? -0.2616
-4.9498 M-MEETING -0.3009
-4.6488 M-MORTY. -0.2616
-4.9498 M-MORTY? -0.2616
-4.9498 MA -0.3010
-4.9498 MA'AM! -0.2616
-4.9498 MA'AM? -0.2616
-4.9498 MACHINE, -0.2974
-4.6488 MACHINE. -0.2616
-4.9498 MACHINE? -0.2616
-4.9498 MACHINES. -0.2616
-4.9498 MAD. -0.2616
-4.9498 MAD?! -0.2616
-3.6276 MADE -0.2496
-4.9498 MAGIC. -0.2616
-4.9498 MAGICAL -0.3010
-4.9498 MAIN -0.2616
-4.9498 MAINTAIN -0.3008
-4.9498 MAINTENANCE. -0.2616
-4.9498 MAJORING -0.2999
-3.2016 MAKE -0.2393
-4.9498 MAKE-OR-BREAK -0.3009
-4.9498 MAKE? -0.2616
-4.9498 MAKER, -0.2616
-3.8359 MAKES -0.2476
-3.7737 MAKING -0.2554
-4.4727 MALE -0.2990
-4.6488 MALE, -0.2615
-4.4727 MALES -0.2616
-4.9498 MALLEABLE. -0.2616
-4.9498 MALOTES, -0.3010
-4.9498 MAMMAL'S -0.3010
-4.9498 MAMUMANUMS-DAYS, -0.2616
-3.7194 MAN -0.2566
-3.8037 MAN! -0.2531
-4.2508 MAN'S -0.2575
-3.6711 MAN, -0.2512
-3.6945 MAN. -0.2603
-4.6488 MAN? -0.2616
-4.6488 MANAGER -0.2616
-4.9498 MANDATORY. -0.2616
-4.9498 MANHANDLE -0.3009
-4.9498 MANIPULATED -0.3010
-4.9498 MANNIES -0.3002
-4.6488 MANTISES -0.2607
-4.9498 MANUALLY. -0.2616
-3.9956 MANY -0.2615
-4.9498 MANY, -0.2616
-4.9498 MAR-SHA, -0.2616
-4.9498 MARC -0.3010
-4.9498 MARC? -0.3010
-4.9498 MARKETING, -0.2616
-4.9498 MARKLEVITZ, -0.2616
-4.6488 MARMADUKE. -0.2616
-4.3478 MARRIAGE -0.2598
-4.9498 MARRIAGE, -0.2616
-4.9498 MARRIAGE. -0.2616
-4.9498 MARRIED! -0.2616
-4.9498 MARRIED, -0.3009
-4.6488 MARRIED. -0.2616
-4.6488 MARRY -0.3007
-4.9498 MASTERPIECE -0.2616
-4.6488 MASTURBATE. -0.2616
-4.9498 MATCHING -0.2616
-4.6488 MATE -0.3002
-4.9498 MATES -0.3002
-4.6488 MATH -0.3010
-4.9498 MATH! -0.2616
-4.6488 MATH, -0.2606
-4.6488 MATH. -0.2616
-4.6488 MATH? -0.2616
-4.1047 MATTER -0.2535
-4.6488 MATTER, -0.2616
-4.3478 MATTER. -0.2616
-4.6488 MATTER? -0.2616
-4.6488 MATTERED -0.2616
-4.9498 MATTRESS -0.3004
-4.1717 MAY -0.2606
-4.9498 MAY-MAYBE -0.3010
-3.5696 MAYBE -0.2444
-4.9498 MAYBE! -0.2616
-4.6488 MAYONNAISE -0.3010
-4.9498 MAYOR -0.2616
-4.9498 MC -0.3010
-4.9498 MCMAHAN -0.2616
-2.7885 ME -0.2283
-3.4874 ME! -0.2604
-3.4058 ME, -0.2559
-3.2966 ME. -0.2564
-3.5519 ME? -0.2616
-4.2508 ME?! -0.2612
-4.9498 MEALS -0.2616
-3.7737 MEAN -0.2468
-3.1864 MEAN, -0.2332
-4.9498 MEAN. -0.2616
-4.2508 MEAN? -0.2616
-4.9498 MEANING, -0.2616
-4.6488 MEANINGFUL -0.2615
-4.0467 MEANS -0.2574
-4.9498 MEANT -0.2981
-4.4727 MEANT. -0.2616
-4.9498 MEASURE -0.3009
-4.6488 MECHANICAL -0.2616
-4.9498 MEDIA. -0.2616
-4.6488 MEDICAL -0.3010
-4.9498 MEDICINE -0.2997
-4.9498 MEDIOCRE? -0.2616
-3.9956 MEESEEKS -0.2986
-3.8359 MEESEEKS! -0.2614
-4.2508 MEESEEKS, -0.2607
-4.2508 MEESEEKS. -0.2616
-4.9498 MEESEEKS? -0.2616
-4.9498 MEET -0.2616
-4.9498 MEETING. -0.2616
-4.1047 MEGA -0.3009
-4.9498 MELISSA. -0.2616
-4.0467 MEN -0.2563
-4.9498 MEN'S -0.3010
-4.6488 MEN. -0.2616
-4.4727 MENTALLY -0.3010
-4.9498 MENTION -0.3009
-4.9498 MEOW. -0.2616
-4.9498 MERELY -0.2616
-4.3478 MERRY -0.3010
-4.9498 MERRY, -0.2616
-4.6488 MESS -0.3005
-4.9498 MESSAGE? -0.2616
-4.9498 MESSAGES -0.2616
-4.9498 MESSED -0.3008
-4.9498 METAL, -0.3000
-4.9498 METEOR -0.3010
-4.9498 METEOR, -0.2990
-4.9498 METH -0.2616
-4.6488 MEXICAN -0.3010
-4.9498 MEXICO. -0.2616
-4.9498 MICHAEL -0.3010
-4.9498 MICHAELS. -0.2616
-4.6488 MICROSCOPE -0.2616
-4.9498 MICROSCOPE, -0.2616
-4.9498 MICROSCOPIC -0.3010
-4.9498 MICROWAVE? -0.2616
-4.9498 MICROWAVES, -0.3010
-4.9498 MIDDLE -0.2616
-4.9498 MIDNIGHT -0.3010
-3.7737 MIGHT -0.2593
-4.9498 MILES. -0.2616
-4.9498 MILITARY -0.3010
-4.6488 MILK -0.2614
-4.4727 MILK? -0.2616
-4.9498 MILLENNIA. -0.2616
-4.9498 MILLION, -0.3010
-4.9498 MILLION. -0.2616
-4.9498 MILQUETOAST -0.2616
-4.4727 MIND -0.2954
-4.9498 MIND! -0.2616
-4.6488 MIND, -0.2616
-4.9498 MIND-BENDING -0.3010
-4.4727 MIND. -0.2616
-4.9498 MINDFUCK! -0.2616
-4.9498 MINDS -0.2990
-4.9498 MINE -0.3009
-4.6488 MINE! -0.2616
-4.9498 MINE, -0.3000
-4.3478 MINE. -0.2616
-4.9498 MINES -0.3004
-4.9498 MINIATURE -0.3010
-4.9498 MINIMUM -0.3010
-4.9498 MINING -0.2616
-4.9498 MINISTRY -0.2991
-4.9498 MINNE -0.3010
-4.9498 MINNESOTA? -0.2616
-4.4727 MINUTE -0.2580
-4.3478 MINUTE, -0.2569
-4.4727 MINUTE. -0.2616
-4.6488 MINUTES -0.2959
-4.9498 MINUTES! -0.2616
-4.6488 MINUTES. -0.2616
-4.9498 MISERY. -0.2616
-4.3478 MISS -0.2609
-4.9498 MISS. -0.2616
-4.9498 MISS? -0.2616
-4.9498 MISSED -0.2978
-4.4727 MISSING -0.2576
-4.9498 MISSING. -0.2616
-4.9498 MISTAKE -0.2998
-4.9498 MISTAKE, -0.3000
-4.6488 MISTAKE. -0.2616
-4.9498 MISTAKES -0.3008
-4.9498 MISTER! -0.2616
-4.9498 MISTER, -0.3009
-4.9498 MISUNDERSTANDING. -0.2616
-4.9498 MITTENS. -0.2616
-4.4727 MIXED -0.2568
-4.9498 MM -0.3008
-4.6488 MM! -0.2616
-4.2508 MM, -0.3005
-4.2508 MM. -0.2616
-4.9498 MMM! -0.2616
-4.2508 MMM. -0.2616
-4.9498 MNEMONIC -0.2616
-4.9498 MO -0.2616
-4.9498 MO-MO! -0.2616
-4.6488 MODEL -0.2616
-4.9498 MODIFICATIONS -0.3003
-4.6488 MOJITOS. -0.2616
-4.6488 MOM -0.2989
-4.9498 MOM! -0.3010
-4.6488 MOM, -0.2616
-4.4727 MOM. -0.2616
-4.6488 MOM? -0.2616
-4.6488 MOMENT -0.2991
-4.9498 MONEY -0.2616
-4.9498 MONEY'S -0.2616
-4.4727 MONEY. -0.2616
-4.6488 MONITOR -0.2616
-4.9498 MONITOR, -0.2616
-4.9498 MONKEY -0.3010
-4.3478 MONSTER -0.2605
-4.9498 MONSTER! -0.2616
-4.9498 MONSTER. -0.2616
-4.9498 MONSTERS, -0.3010
-4.6488 MONSTERS. -0.2616
-4.9498 MONTH'S -0.3010
-4.9498 MONTH. -0.2616
-4.9498 MONTHS -0.2616
-4.9498 MONTHS. -0.2616
-4.9498 MONUMENT -0.2981
-4.9498 MOODY. -0.2616
-4.9498 MOON -0.3000
-4.9498 MOP -0.2990
-3.3478 MORE -0.2544
-4.2508 MORE. -0.2616
-4.9498 MORNING -0.3000
-4.3478 MORNING, -0.2615
-4.6488 MORNING. -0.2616
-4.9498 MORNING? -0.2616
-4.9498 MORTIES. -0.2616
-4.9498 MORTIMER -0.3010
-3.2686 MORTY -0.2562
-3.3588 MORTY! -0.2616
-3.8359 MORTY'S -0.2581
-2.9813 MORTY, -0.2230
-2.6445 MORTY. -0.2591
-3.4447 MORTY? -0.2616
-4.9498 MORTY?! -0.2616
-3.8706 MOST -0.2615
-4.9498 MOST. -0.2616
-4.0467 MOTHER -0.2594
-4.6488 MOTHER'S -0.3010
-4.9498 MOTHER. -0.2616
-4.9498 MOTHERF -0.2616
-4.6488 MOTHERFUCKER! -0.2616
-4.9498 MOTHERFUCKER? -0.2616
-4.9498 MOTION -0.2981
-4.9498 MOTOR -0.3010
-4.9498 MOUNTAIN? -0.2616
-4.9498 MOUNTAINS. -0.2616
-4.9498 MOUTH -0.2616
-4.9498 MOUTH, -0.3010
-4.9498 MOUTH. -0.2616
-4.1717 MOVE -0.2591
-4.9498 MOVE! -0.2616
-4.9498 MOVE, -0.3010
-4.2508 MOVE. -0.2616
-4.6488 MOVED -0.2576
-4.3478 MOVIE -0.2992
-4.9498 MOVIE, -0.2616
-4.1717 MOVIE. -0.2616
-4.9498 MOVIE? -0.2616
-4.9498 MOVIES -0.2616
-4.9498 MOVING -0.2967
-4.9498 MOYNIHAN -0.2990
-4.9498 MOYNIHAN! -0.2616
-3.3266 MR. -0.3007
-3.6945 MRS. -0.2615
-3.6711 MUCH -0.2576
-4.4727 MUCH, -0.2578
-4.1717 MUCH. -0.2616
-4.9498 MULTIPHASE -0.3010
-4.3478 MURDER -0.2616
-4.9498 MURDER. -0.2616
-4.9498 MURDERS -0.2616
-4.4727 MURRAY -0.3000
-4.9498 MURRAY. -0.2616
-4.9498 MUSCULAR -0.2616
-4.6488 MUSEUM -0.2976
-4.9498 MUSIC -0.2616
-4.4727 MUSIC. -0.2616
-4.9498 MUSIC? -0.2616
-4.9498 MUSKEGON. -0.2616
-3.9498 MUST -0.3001
-4.9498 MUST, -0.2967
-4.9498 MUSTACHES, -0.2616
-4.9498 MUTE -0.3008
-4.9498 MUTILATION -0.2616
-2.5073 MY -0.2548
-4.9498 MY, -0.3010
-4.4727 MYSELF -0.2612
-4.9498 MYSELF! -0.2616
-4.6488 MYSELF, -0.2613
-4.2508 MYSELF. -0.2616
-4.9498 MYSELF? -0.2616
-4.9498 MYSTERIES -0.2616
-4.6488 MYSTERIOUS -0.2616
-4.6488 MYSTERY. -0.2616
-4.9498 N-NO -0.3010
-4.6488 N.A.S.A. -0.2616
-4.6488 NAILED -0.3007
-4.4727 NAKED -0.3009
-4.9498 NAKED! -0.2616
-3.8359 NAME -0.2573
-4.6488 NAME'S -0.3004
-4.6488 NAME, -0.2616
-4.6488 NAME. -0.2616
-4.4727 NAME? -0.2616
-4.4727 NAMED -0.2613
-4.9498 NAMES -0.2991
-4.9498 NAMES? -0.2616
-4.9498 NANOBOTIC -0.3010
-4.9498 NAR -0.3010
-4.9498 NAR, -0.2616
-4.9498 NARCISSISTICALLY -0.3010
-4.9498 NATALIE -0.3010
-4.9498 NATIONAL -0.3010
-4.9498 NATIONALLY -0.3010
-4.9498 NATURE -0.2990
-4.9498 NATURE'S -0.3010
-4.9498 NEAR -0.3010
-4.9498 NEARLY -0.3002
-4.9498 NEAT -0.2616
-4.9498 NEAT. -0.2616
-4.6488 NECESSARY -0.2972
-4.9498 NECESSARY. -0.2616
-4.9498 NECK, -0.2616
-3.3478 NEED -0.2451
-4.6488 NEEDED -0.2615
-4.3478 NEEDFUL -0.3009
-4.6488 NEEDFUL, -0.3003
-4.4727 NEEDFUL. -0.2616
-4.3478 NEEDS -0.2947
-4.9498 NEGATIVE -0.3010
-4.9498 NEGLIGENT, -0.2616
-4.9498 NEGOTIATE -0.3002
-4.9498 NEIGHBORHOOD -0.2616
-4.9498 NERVES, -0.2616
-4.9498 NERVOUS -0.2616
-4.9498 NERVOUS. -0.2616
-4.9498 NEUTRALIZE -0.2616
-4.6488 NEUTRINO -0.3010
-3.6074 NEVER -0.2550
-4.6488 NEVER! -0.2616
-3.6711 NEW -0.2615
-4.9498 NEW, -0.2616
-4.9498 NEWMAN -0.3010
-4.4727 NEWS -0.3001
-4.9498 NEWS, -0.3010
-4.9498 NEWS. -0.2616
-4.9498 NEWSPAPER. -0.2616
-3.9498 NEXT -0.3001
-4.6488 NEXT? -0.2616
-4.0467 NICE -0.2561
-4.9498 NICE! -0.2616
-4.4727 NICE, -0.3007
-4.9498 NICE-LOOKING -0.3010
-4.1047 NICE. -0.2600
-4.1717 NIGHT -0.2568
-4.2508 NIGHT. -0.2616
-4.9498 NIGHT? -0.2616
-4.9498 NIGHTMARE! -0.2616
-4.9498 NIGHTMARE, -0.2616
-4.6488 NIGHTMARE. -0.2616
-4.9498 NIGHTS -0.2991
-4.9498 NIGHTTIME -0.2616
-4.1717 NINE -0.2992
-4.9498 NINE? -0.2616
-4.9498 NINETIES. -0.2616
-4.9498 NIPPLE -0.3010
-4.9498 NIPPLE! -0.2616
-4.9498 NIPPLE, -0.3004
-4.9498 NIPPLE. -0.2616
-4.9498 NIPPLE? -0.2616
-4.9498 NIPS, -0.2616
-3.3164 NO -0.2564
-3.3935 NO! -0.2591
-3.2255 NO, -0.2375
-3.6711 NO. -0.2561
-4.6488 NO? -0.2614
-4.9498 NOBEL -0.3010
-4.4727 NOBLE -0.2990
-3.9956 NOBODY -0.3001
-4.6488 NOBODY'S -0.3010
-4.9498 NOBODY. -0.2616
-4.9498 NOISE. -0.2616
-4.9498 NOISES, -0.2616
-4.9498 NOMINATE -0.3009
-4.9498 NOMINATEDFOR -0.3007
-4.9498 NON-STOP -0.3010
-4.3478 NONE -0.2991
-4.6488 NONSENSE -0.2616
-4.9498 NONSENSE, -0.3000
-4.9498 NONSENSICAL -0.3010
-4.9498 NOOPERS -0.3004
-4.9498 NOOPERS, -0.2616
-4.6488 NOOPERS. -0.2616
-4.9498 NOPE. -0.3000
-4.4727 NORMAL -0.3008
-4.9498 NORMAL, -0.2616
-4.6488 NORMAL. -0.2616
-4.9498 NORMALLY, -0.2974
-4.9498 NORTH -0.3010
-4.9498 NORTH. -0.2616
-4.9498 NOSE -0.3004
-2.8426 NOT -0.2324
-4.9498 NOT! -0.2616
-4.9498 NOT, -0.2616
-4.0467 NOT. -0.2616
-4.6488 NOT? -0.2616
-4.6488 NOTED. -0.2613
-3.8706 NOTHING -0.2548
-4.9498 NOTHING'S -0.3010
-4.9498 NOTHING, -0.2999
-4.9498 NOTHING. -0.2616
-4.6488 NOTHING? -0.2616
-4.4727 NOTICE -0.2965
-4.6488 NOTICED -0.2616
-4.9498 NOTICED. -0.2616
-4.9498 NOTIFY -0.3010
-4.9498 NOTIFYING -0.3009
-4.9498 NOTTHEM. -0.2616
-4.9498 NOUNS -0.2616
-4.9498 NOVEL -0.2616
-4.9498 NOVEL, -0.2616
-4.9498 NOVEL. -0.2616
-3.2966 NOW -0.2303
-4.2508 NOW! -0.2616
-3.4447 NOW, -0.2479
-3.6945 NOW. -0.2616
-4.1717 NOW? -0.2616
-4.9498 NOWHERE, -0.2616
-4.9498 NUDITY. -0.2616
-4.3478 NUMBER -0.2588
-4.9498 NUMBER, -0.3009
-4.9498 NURSERY. -0.2616
-4.3478 NURSING -0.3010
-4.9498 NUT -0.3010
-4.9498 NUTJOB, -0.2616
-4.9498 NUTS! -0.2616
-4.9498 NUTS, -0.3000
-4.6488 NUTS? -0.2616
-4.9498 O -0.2616
-4.9498 O'CLOCK. -0.2616
-4.9498 O-O-OKAY. -0.3010
-4.9498 O-OF -0.3010
-4.9498 O-OKAY, -0.3010
-4.9498 O-ONCE -0.2999
-4.9498 OBAMA. -0.2616
-4.6488 OBSESS -0.2616
-4.9498 OBSESSION -0.2616
-4.9498 OBSOLETE. -0.2616
-4.9498 OBVIOUS -0.2981
-4.9498 OBVIOUS, -0.3000
-4.3478 OBVIOUSLY -0.2561
-4.1717 OBVIOUSLY, -0.2976
-2.3554 OF -0.2204
-4.9498 OF, -0.2967
-4.6488 OF. -0.2616
-3.6488 OFF -0.2477
-4.4727 OFF! -0.2616
-4.4727 OFF, -0.2616
-4.4727 OFF. -0.2616
-4.9498 OFFENSE -0.2616
-4.9498 OFFER, -0.2616
-4.9498 OFFICIAL -0.3010
-4.9498 OFFICIALLY -0.2978
-4.9498 OFFLINE. -0.2616
-4.9498 OH -0.2997
-4.0467 OH! -0.2616
-2.6711 OH, -0.2663
-4.9498 OH-HO-HO! -0.2616
-3.9084 OH. -0.2610
-4.3478 OHH! -0.2616
-4.6488 OHH, -0.3006
-4.2508 OHH. -0.2616
-4.9498 OHHHH! -0.2616
-4.4727 OHHHHH! -0.2616
-4.9498 OHHHHHH! -0.2616
-4.9498 OHHHHHH. -0.2616
-4.9498 OHUM -0.2616
-4.6488 OKAY -0.2969
-4.1717 OKAY! -0.2615
-3.3588 OKAY, -0.2422
-3.4585 OKAY. -0.2552
-3.7737 OKAY? -0.2616
-3.7194 OLD -0.2588
-4.9498 OLD-SCHOOL -0.2616
-4.9498 OLIVES -0.2616
-4.9498 OLYMPICS. -0.2616
-2.8006 ON -0.2353
-3.9956 ON! -0.2616
-3.3370 ON, -0.2537
-3.5696 ON. -0.2614
-4.1047 ON? -0.2616
-4.1047 ONCE -0.2519
-4.6488 ONCE, -0.2616
-4.9498 ONCE. -0.2616
-4.9498 ONCE? -0.2616
-4.9498 ONCEIN -0.2974
-3.1717 ONE -0.2498
-4.4727 ONE'S -0.3010
-4.0467 ONE, -0.2611
-4.9498 ONE-HANDED -0.2616
-4.9498 ONE-HUNDREDTH -0.2616
-4.9498 ONE-SEVENTH -0.3010
-3.9084 ONE. -0.2616
-4.6488 ONE? -0.2616
-4.6488 ONES -0.2594
-4.9498 ONES. -0.2616
-4.9498 ONLINE, -0.2616
-4.9498 ONLINE. -0.2616
-3.5519 ONLY -0.2540
-4.9498 ONLY! -0.2616
-4.6488 ONLY. -0.2616
-4.9498 ONTO -0.2978
-4.6488 OOF! -0.2616
-4.6488 OOF. -0.3010
-4.3478 OOH! -0.2616
-3.7194 OOH, -0.2949
-4.3478 OOH. -0.2616
-4.9498 OOOH! -0.2616
-4.9498 OOPS. -0.2976
-4.9498 OP -0.3010
-4.2508 OPEN -0.2614
-4.9498 OPEN, -0.2616
-4.9498 OPEN-AND-SHUT -0.3010
-4.6488 OPEN. -0.2616
-4.9498 OPENED -0.2616
-4.9498 OPERA -0.3010
-4.9498 OPERATE -0.3000
-4.9498 OPERATES -0.3004
-4.9498 OPERATING -0.3006
-4.9498 OPERATION. -0.2616
-4.9498 OPINION -0.2616
-4.9498 OPINION, -0.2616
-4.9498 OPINION. -0.2616
-4.9498 OPPORTUNITY -0.2616
-4.9498 OPPORTUNITY, -0.2616
-4.4727 OPPOSITE -0.2595
-4.6488 OPPOSITE. -0.2616
-3.2255 OR -0.2458
-4.9498 OR, -0.3009
-4.3478 ORDER -0.2589
-4.9498 ORDER. -0.2616
-4.9498 ORDERING -0.2967
-4.9498 ORDERS -0.2616
-4.9498 ORGAN -0.3010
-4.9498 ORIGIN -0.2991
-4.9498 ORIGINAL -0.3010
-4.0467 OTHER -0.2591
-4.9498 OTHER, -0.3010
-4.6488 OTHER. -0.2616
-4.9498 OUCH. -0.3010
-3.1939 OUR -0.2600
-4.9498 OURFAMOUS -0.3010
-4.9498 OURS! -0.2616
-4.3478 OURSELVES -0.2615
-4.4727 OURSELVES, -0.2616
-3.0577 OUT -0.2394
-4.2508 OUT! -0.2616
-4.3478 OUT, -0.2614
-3.8359 OUT. -0.2616
-4.6488 OUT? -0.2616
-4.9498 OUTBREAK. -0.2616
-4.9498 OUTBURST -0.2616
-4.6488 OUTDONE -0.3010
-4.9498 OUTJUST -0.3010
-4.9498 OUTRANK -0.3009
-4.4727 OUTSIDE -0.2972
-4.9498 OUTSIDE. -0.2616
-4.3478 OUTSIDE? -0.2616
-4.9498 OUTSMART -0.2616
-3.4447 OVER -0.2462
-4.6488 OVER, -0.2615
-4.2508 OVER. -0.2616
-4.9498 OVERHAULED -0.2616
-4.9498 OVERHEAD. -0.2616
-4.9498 OVERREACTED. -0.2616
-4.9498 OVERSIZED -0.3010
-4.9498 OVERSTEP -0.2997
-3.9498 OW! -0.2596
-4.2508 OWN -0.3009
-4.6488 OWN, -0.2616
-4.6488 OWN. -0.2616
-4.9498 OWN? -0.2616
-4.9498 OXYGEN. -0.2616
-4.9498 OXYTOCIN. -0.2616
-4.9498 P-PORTAL -0.3010
-4.9498 PACK -0.3008
-4.9498 PACKAGE -0.2616
-4.9498 PADDING, -0.2616
-4.9498 PAGAN -0.3010
-4.9498 PAGE -0.3009
-4.6488 PAID -0.3002
-4.9498 PAIN -0.2616
-4.9498 PAIN, -0.3007
-4.9498 PAIN. -0.2616
-4.9498 PAINTED -0.3010
-4.6488 PAIR -0.2984
-4.9498 PAL. -0.2616
-4.9498 PALICKY -0.3004
-4.9498 PALICKY. -0.2616
-4.9498 PAN -0.3010
-4.2508 PANCAKES -0.2615
-4.9498 PANCAKES! -0.2616
-4.6488 PANCAKES' -0.3010
-4.9498 PANCAKES, -0.2999
-4.6488 PANCREAS -0.3004
-4.3478 PANCREAS. -0.2616
-4.6488 PANCREAS? -0.2616
-4.9498 PANDA -0.3010
-4.9498 PANICKING. -0.2616
-4.9498 PANTS -0.3009
-4.9498 PANTS! -0.2616
-4.4727 PANTS, -0.2604
-4.6488 PANTS. -0.2616
-4.9498 PANTSDAWG. -0.2616
-4.9498 PAPER -0.2997
-4.9498 PARACHUTE. -0.2616
-4.9498 PARADISE -0.2616
-4.6488 PARADISE. -0.2616
-4.9498 PARADOX! -0.2616
-4.9498 PARALLEL -0.3010
-4.9498 PARDON, -0.3009
-3.7737 PARENTS -0.2568
-4.6488 PARENTS. -0.2616
-4.3478 PARK -0.2983
-4.9498 PARK! -0.2616
-4.9498 PARK'S -0.3010
-4.9498 PARK, -0.2616
-4.6488 PARK. -0.2616
-4.9498 PARK? -0.2616
-3.9084 PART -0.2595
-4.9498 PART-TIME -0.3006
-4.9498 PARTNER, -0.2616
-4.6488 PARTNER. -0.2616
-4.9498 PARTNERING -0.2967
-4.9498 PARTNERS. -0.2616
-4.6488 PARTS -0.3010
-4.9498 PARTS, -0.2616
-4.9498 PARTY -0.3010
-4.9498 PARTY? -0.2616
-4.3478 PASS -0.2564
-4.9498 PASSAGE -0.2616
-4.9498 PASSED -0.3010
-4.9498 PASSIVE-AGGRESSION, -0.2616
-4.9498 PASSOVER. -0.2616
-4.6488 PAST -0.3009
-4.9498 PATCH? -0.2616
-4.9498 PATENT -0.3003
-4.9498 PATH -0.2616
-4.9498 PATHETIC -0.3010
-4.9498 PATHETIC, -0.3010
-4.9498 PATHWAY -0.2981
-4.9498 PATRIARCHAL! -0.2616
-4.9498 PAUL -0.3010
-4.9498 PAUSE -0.3004
-4.6488 PAW. -0.2616
-4.9498 PAWN -0.3010
-3.9084 PAY -0.2595
-4.9498 PAY! -0.2616
-4.6488 PAYING -0.3010
-4.6488 PAYS -0.3006
-4.9498 PEACE. -0.2616
-4.9498 PEANUT -0.3010
-4.9498 PEARL -0.3010
-4.9498 PEDAL -0.2981
-4.9498 PEED -0.3003
-4.9498 PEEING -0.3002
-4.9498 PEELED -0.3002
-4.9498 PENCER, -0.3008
-4.9498 PENIS -0.2616
-4.6488 PENIS. -0.2616
-3.3816 PEOPLE -0.2414
-4.9498 PEOPLE! -0.2616
-4.9498 PEOPLE'D -0.3010
-4.6488 PEOPLE'S -0.3010
-4.6488 PEOPLE, -0.2615
-4.3478 PEOPLE. -0.2616
-4.6488 PEOPLE? -0.2616
-4.2508 PERCENT -0.2594
-4.9498 PERCENT. -0.2616
-4.9498 PERCENTAGE -0.2991
-4.3478 PERFECT -0.2616
-4.9498 PERFECT, -0.3000
-4.6488 PERFECT. -0.2616
-4.9498 PERFECTLY -0.3009
-4.9498 PERFORM -0.3008
-4.6488 PERFORMING -0.3010
-4.4727 PERHAPS -0.2961
-4.9498 PERMITTED -0.2981
-4.9498 PERSEVERED -0.2616
-4.3478 PERSON -0.2989
-4.6488 PERSON. -0.2616
-4.9498 PERSONAL. -0.2616
-4.9498 PERSONALLY. -0.2616
-4.9498 PERVY -0.3010
-4.9498 PET -0.3010
-4.9498 PETE'S -0.3010
-4.9498 PETTY! -0.2616
-4.9498 PFFT! -0.2616
-4.9498 PHASE -0.3010
-4.9498 PHIL -0.3010
-4.9498 PHONE -0.3010
-4.9498 PHONE! -0.2616
-4.6488 PHONE. -0.2616
-4.9498 PHONES, -0.3008
-4.9498 PHRASE? -0.2616
-4.9498 PI, -0.2616
-4.9498 PI. -0.2616
-4.3478 PICK -0.2602
-4.9498 PICKING -0.3008
-4.9498 PICKLES -0.2616
-4.9498 PICKLES, -0.2616
-4.9498 PICTURE. -0.2616
-4.1717 PIECE -0.2595
-4.9498 PIGGYBACKING -0.3003
-4.9498 PILLOW, -0.3010
-4.9498 PILLOW. -0.2616
-4.9498 PILLS -0.3010
-4.9498 PILOT. -0.2616
-4.9498 PIN -0.2999
-4.6488 PING-PONG -0.3010
-4.9498 PINK -0.3010
-4.0467 PIRATES -0.2595
-4.9498 PIRATES? -0.2616
-4.9498 PISS -0.3003
-4.6488 PITCH -0.2616
-4.9498 PITCH! -0.2616
-4.6488 PITCH. -0.2616
-4.9498 PITCHED -0.3008
-3.9084 PLACE -0.2569
-4.4727 PLACE, -0.2606
-4.2508 PLACE. -0.2616
-4.2508 PLACE? -0.2616
-4.6488 PLACED -0.2581
-4.6488 PLACES -0.2584
-4.9498 PLAGUE! -0.2616
-4.9498 PLAN -0.2999
-4.4727 PLAN, -0.2568
-4.9498 PLAN. -0.2616
-4.9498 PLANE! -0.2616
-4.9498 PLANE, -0.2616
-3.9956 PLANET -0.2545
-4.6488 PLANET! -0.2616
-3.9084 PLANET, -0.2609
-3.7457 PLANET. -0.2616
-4.6488 PLANETS. -0.2616
-4.9498 PLANETS? -0.2616
-4.9498 PLANNED -0.2616
-4.9498 PLANS -0.3008
-3.9956 PLAY -0.2594
-4.6488 PLAYED -0.2616
-4.1717 PLAYING -0.2616
-3.9956 PLEASE -0.2591
-4.6488 PLEASE! -0.2616
-3.9956 PLEASE, -0.2561
-4.4727 PLEASE. -0.2616
-4.6488 PLEASURE -0.2584
-4.9498 PLEASURE'S -0.3002
-4.9498 PLENTY -0.2991
-4.9498 PLOT -0.3010
-4.9498 PLUCK -0.3009
-4.4727 PLUS -0.3010
-4.9498 PLUS, -0.2967
-4.6488 PLUS. -0.2616
-3.8037 PLUTO -0.2586
-4.1047 PLUTO'S -0.2574
-4.9498 PLUTO, -0.2616
-4.9498 PLUTO-BEL -0.3010
-4.6488 PLUTO-NAMO -0.3010
-4.9498 PLUTO-QUAKES, -0.3010
-4.4727 PLUTO. -0.2616
-4.4727 PLUTO? -0.2616
-4.6488 PLUTONIANS -0.2607
-4.9498 PLUTONIANS. -0.2616
-4.4727 PLUTONIC -0.2616
-4.6488 PLUTONIUM -0.2616
-4.9498 PLUTONIUM. -0.2616
-4.1717 POINT -0.2566
-4.2508 POINT, -0.2589
-4.9498 POINT. -0.2616
-4.9498 POINTY. -0.2616
-4.6488 POISON -0.2616
-4.9498 POISONOUS -0.2616
-4.6488 POLICE -0.2607
-4.9498 POLICE? -0.2616
-4.9498 POLICY -0.3005
-4.9498 POLITE, -0.2999
-4.9498 POLITICS -0.3009
-4.9498 POMPOUS, -0.3010
-4.9498 PONCHO! -0.2616
-4.9498 PONCHO, -0.2967
-4.9498 PONCHO. -0.2616
-4.6488 PONCHO? -0.2616
-4.9498 POOF. -0.2616
-4.9498 POOP -0.3010
-4.9498 POOPED -0.2999
-4.9498 POOPY -0.3010
-4.4727 POOR -0.3009
-4.9498 POOR, -0.2616
-4.9498 POOR? -0.2616
-4.3478 POP -0.2614
-4.6488 POP, -0.2616
-4.6488 POP. -0.2616
-4.9498 POPPIES, -0.2616
-4.4727 POPULAR -0.2991
-4.9498 POPULATED -0.2616
-4.6488 POPULATION. -0.2616
-4.3478 PORTAL -0.3010
-4.9498 PORTAL. -0.3010
-4.9498 PORTAL? -0.2616
-4.9498 POSITE -0.2991
-4.9498 POSITION. -0.2616
-4.9498 POSSE. -0.2616
-4.9498 POSSESSED -0.3008
-4.9498 POSSIBILITIES, -0.2616
-4.9498 POSSIBILITIES. -0.2616
-4.9498 POSSIBILITY -0.2616
-4.6488 POSSIBLE -0.2602
-4.9498 POSSIBLE? -0.2616
-4.9498 POSSIBLY -0.3010
-4.9498 POSTING -0.2998
-4.9498 POTION -0.3008
-4.9498 POUR -0.2616
-4.6488 POWER -0.2616
-4.9498 POWER. -0.2616
-4.9498 POWERFUL -0.3010
-4.9498 POWERFUL, -0.2616
-4.9498 POWERS -0.2616
-4.9498 POWERS. -0.2616
-4.9498 PPEARS -0.2616
-4.9498 PPEN?! -0.2616
-4.9498 PRACTICE-KISS -0.2616
-4.9498 PRAISE -0.3009
-4.9498 PRAYING -0.3010
-4.9498 PRAYING-MANTIS -0.2616
-4.9498 PRECIOUS -0.3000
-4.9498 PRECISE -0.3010
-4.9498 PREDATOR, -0.2616
-4.9498 PREDICTABLE? -0.2616
-4.9498 PREDILECTIONS -0.3006
-4.9498 PREGNANCY. -0.2616
-4.6488 PREGNANT -0.3006
-4.9498 PREGNANT! -0.2616
-4.9498 PREGNANT, -0.2616
-4.6488 PREGNANT. -0.2616
-4.9498 PREMIUM -0.2616
-4.9498 PREPOSTEROUS. -0.2616
-4.9498 PRESIDENT -0.2991
-4.9498 PRESS -0.3009
-4.6488 PRESSURE -0.2609
-4.6488 PRETEND -0.2603
-4.9498 PRETTIEST -0.3010
-3.5696 PRETTY -0.2613
-4.9498 PREVIEW -0.2616
-4.6488 PREVIOUS -0.2616
-4.9498 PREY -0.3002
-4.6488 PRICE -0.3002
-4.9498 PRICE. -0.2616
-4.9498 PRICES, -0.2976
-4.6488 PRIMITIVE -0.3010
-4.2508 PRINCIPAL -0.2990
-4.9498 PRIORITY -0.2995
-4.6488 PRISON -0.2600
-4.6488 PRISON. -0.2616
-4.9498 PRISON? -0.2616
-4.9498 PRIVATE? -0.2616
-4.9498 PRIVATES? -0.2616
-4.9498 PRIZE -0.2995
-4.9498 PRIZE. -0.2616
-4.9498 PROBABLY -0.3010
-4.0467 PROBLEM -0.2558
-4.6488 PROBLEM, -0.2616
-4.9498 PROBLEM. -0.2616
-4.9498 PROC -0.2616
-4.6488 PROCEED -0.2584
-4.9498 PROCESS -0.2995
-4.9498 PROCESS, -0.2616
-4.6488 PROCESSING -0.3010
-4.9498 PROCESSING, -0.2616
-4.6488 PROCESSORS -0.2584
-4.9498 PROGRAMING -0.3007
-4.9498 PROGRAMMED -0.3002
-4.9498 PROGRAMS -0.2616
-4.4727 PROJECT -0.2607
-4.6488 PROJECT. -0.2616
-4.9498 PROJECT? -0.2616
-4.9498 PROJECTION -0.2991
-4.9498 PROLONGED -0.2974
-4.9498 PROLONGING -0.2974
-4.9498 PROM -0.3010
-4.4727 PROMISE -0.3006
-4.9498 PROMOTED! -0.2616
-4.9498 PROOF. -0.2616
-4.6488 PROPER -0.3010
-4.9498 PROPOSITION -0.3010
-4.2508 PROUD -0.2991
-4.9498 PROVERBIAL -0.3010
-4.9498 PROWESS -0.2616
-4.9498 PSST, -0.3010
-4.9498 PUBERTY? -0.2616
-4.9498 PUBLISHED -0.3008
-4.9498 PUFFY -0.3010
-4.9498 PUH! -0.2998
-4.9498 PUKE! -0.2616
-4.9498 PUKE. -0.2616
-4.4727 PULL -0.2985
-4.6488 PULLED -0.2968
-4.9498 PULLING -0.2974
-4.9498 PUMP -0.2974
-4.9498 PUMPKIN -0.3010
-4.9498 PUMPKINS, -0.3010
-4.6488 PUN -0.2569
-4.9498 PUNCHES, -0.3007
-4.9498 PUNISH -0.3009
-4.9498 PUNISHABLE -0.3008
-4.9498 PUNISHED -0.2616
-4.9498 PUNISHMENT -0.2616
-4.9498 PUNK -0.3010
-4.9498 PURE -0.3010
-4.6488 PURGE -0.3010
-4.4727 PURPOSE -0.2602
-4.9498 PURPOSE. -0.2616
-4.6488 PURPOSE? -0.2616
-4.9498 PURSUIT -0.2616
-4.9498 PUSHBACK -0.2616
-4.9498 PUSSY -0.2616
-3.5027 PUT -0.2480
-4.9498 PUTS -0.2616
-4.9498 PUTT -0.2616
-4.3478 PUTTING -0.2553
-4.9498 Q, -0.3010
-4.9498 Q-QUICKLY? -0.2616
-4.9498 QUALITY -0.2991
-4.9498 QUANTUM -0.2616
-4.9498 QUARANTINED -0.2974
-4.9498 QUARKS -0.2616
-4.6488 QUARKS, -0.2594
-4.9498 QUEST, -0.3010
-4.6488 QUESTION -0.2600
-4.4727 QUESTION, -0.2605
-4.9498 QUESTION. -0.2616
-4.9498 QUESTIONING, -0.3010
-4.4727 QUESTIONS -0.2575
-4.9498 QUESTIONS! -0.2616
-4.9498 QUESTIONS, -0.3000
-4.6488 QUICK -0.2616
-4.6488 QUICK, -0.3003
-4.3478 QUICK. -0.2616
-4.9498 QUICK? -0.2616
-4.9498 QUICKER -0.2616
-4.9498 QUIET. -0.2616
-4.9498 QUINTONS -0.2616
-4.3478 QUIT -0.3007
-4.9498 QUIT! -0.2998
-4.3478 QUITE -0.2616
-4.9498 QUIZ. -0.2616
-4.9498 QUOTE-UNQUOTE -0.3000
-4.9498 R, -0.2616
-4.9498 R-R-REUBEN'S -0.3005
-4.9498 R-RELATIVE -0.3010
-4.9498 R-ROAD -0.3009
-4.9498 RABBIT -0.3006
-4.9498 RACETRACK -0.2616
-4.9498 RACIAL -0.3010
-4.9498 RACING. -0.2616
-4.9498 RACKET -0.2967
-4.9498 RADIO. -0.2616
-4.9498 RADIOS, -0.2976
-4.9498 RAILS. -0.2616
-4.4727 RAINING -0.3006
-4.9498 RAISE -0.3008
-4.6488 RAISED -0.3003
-4.9498 RALLY, -0.2616
-4.9498 RALPH -0.3010
-4.9498 RAN -0.3008
-4.9498 RANDOLPH -0.2616
-4.9498 RANDOM -0.3010
-4.9498 RANDOM, -0.3010
-4.6488 RAP -0.2616
-4.9498 RAPE -0.3009
-4.9498 RAPEY. -0.2616
-4.6488 RAPPER -0.2616
-4.9498 RAPPER, -0.2616
-4.9498 RAPPING -0.3010
-4.6488 RARE -0.3010
-4.9498 RASCAL. -0.2616
-4.6488 RATHER -0.3010
-4.9498 RATIONAL -0.2616
-4.9498 RATS! -0.3000
-4.9498 RATTLESNAKE, -0.3010
-4.4727 RAY -0.2997
-4.9498 RE-EVALUATE -0.2616
-4.9498 REACHES -0.3010
-4.9498 REACTION -0.2997
-4.3478 READ -0.2610
-4.9498 READER -0.2616
-4.4727 READING -0.2616
-4.9498 READY -0.2981
-3.3935 REAL -0.2609
-4.9498 REAL! -0.2616
-4.6488 REAL, -0.3000
-4.4727 REAL? -0.2616
-4.9498 REALITIES -0.2616
-4.9498 REALITIES, -0.3006
-4.3478 REALITY -0.2601
-4.1717 REALITY, -0.2609
-4.9498 REALITY. -0.2616
-4.3478 REALIZE -0.2598
-4.9498 REALIZED -0.2974
-4.9498 REALIZING -0.2967
-3.1237 REALLY -0.2495
-4.9498 REALLY, -0.3009
-4.9498 REALLY. -0.2616
-4.2508 REALLY? -0.2560
-4.9498 REAR -0.3010
-4.4727 REASON -0.2584
-4.6488 REASON. -0.2616
-4.9498 REASONING! -0.2616
-4.9498 REASONING. -0.2616
-4.9498 REBOOTS! -0.2616
-4.9498 RECEIVE -0.2995
-4.9498 RECEIVE. -0.2616
-4.9498 RECENT -0.3010
-4.9498 RECENTLY -0.3010
-4.6488 RECIPE -0.3002
-4.9498 RECOGNIZES -0.2974
-4.9498 RECTAL -0.3010
-4.9498 RECTUM, -0.3000
-4.9498 RECTUMS -0.2991
-4.4727 RED -0.3010
-4.9498 RED, -0.2990
-4.9498 REFRIGERATOR, -0.2616
-4.9498 REFUSED -0.2981
-4.9498 REGULAR -0.3010
-4.9498 REGULAR, -0.3010
-4.9498 REGULAR-LEG -0.3010
-4.9498 REGULAR-SIZED -0.2999
-4.9498 REGULARLEGS, -0.2616
-4.6488 REGULARLEGS. -0.2616
-4.9498 REHASH -0.3010
-4.9498 REJECTED -0.3007
-4.9498 RELATED -0.2981
-4.9498 RELATION. -0.2616
-4.6488 RELATIONSHIP -0.2607
-4.9498 RELATIVE -0.2981
-4.6488 RELATIVE. -0.2616
-4.9498 RELATIVELY -0.3010
-4.9498 RELAX -0.2616
-4.9498 RELAX! -0.2616
-4.4727 RELAX, -0.2999
-4.1047 RELAX. -0.2616
-4.9498 RELAX?! -0.2616
-4.9498 RELAXED -0.2999
-4.6488 RELEASED -0.2576
-4.9498 REMAIN -0.2616
-4.9498 REMAINS -0.2616
-3.9498 REMEMBER -0.2515
-4.9498 REMEMBER? -0.2616
-4.9498 REMINDING -0.2967
-4.9498 REMOVE, -0.2616
-4.6488 REMOVED -0.2576
-4.9498 REMOVED. -0.2616
-4.9498 RENAME -0.3010
-4.9498 RENDERED -0.2999
-4.9498 RENDERINGS, -0.2978
-4.9498 RENT-FREE -0.2616
-4.6488 REPAIR -0.2972
-4.9498 REPLACED -0.3010
-4.9498 REPORT -0.2616
-4.9498 REPORTS -0.3007
-4.9498 REPRESENTED -0.3009
-4.9498 REPTILES -0.2616
-4.9498 REPUBLICANS, -0.3010
-4.6488 REQUEST. -0.2616
-4.9498 REQUESTS -0.3010
-4.9498 RESEARCH, -0.3000
-4.9498 RESENT -0.3003
-4.9498 RESONATOR, -0.2616
-4.9498 RESONATOR. -0.2616
-4.3478 RESPECT -0.2984
-4.9498 RESPECT, -0.2616
-4.9498 RESPIRATORY -0.3010
-4.9498 RESPONDING -0.2616
-4.9498 RESPONSIBLE. -0.2616
-4.9498 RESPONSIVE, -0.3010
-4.4727 REST -0.2595
-4.9498 RESTING -0.2616
-4.9498 RESTRUCTURING. -0.2616
-4.9498 RESULTANT -0.3010
-4.4727 RETARDED. -0.2616
-4.9498 RETINAS -0.2616
-4.9498 RETRIEVER, -0.2616
-4.9498 RETURNED -0.3008
-4.9498 RETURNING -0.3002
-4.3478 REUBEN -0.2992
-4.4727 REUBEN'S -0.3003
-4.6488 REUBEN, -0.3007
-4.4727 REUBEN. -0.2616
-4.9498 REVEALS -0.3010
-4.9498 REVOLVE -0.2616
-4.9498 REWARDING -0.2998
-4.9498 REX. -0.2616
-4.6488 RHETORICAL -0.3010
-4.9498 RICH -0.3010
-4.9498 RICH. -0.2616
-3.5185 RICK -0.2575
-3.5027 RICK! -0.2594
-4.6488 RICK'S -0.2999
-3.3816 RICK, -0.2449
-3.1303 RICK. -0.2603
-3.5881 RICK? -0.2614
-4.9498 RICK?! -0.2616
-4.6488 RICKANDMORTY -0.3010
-4.6488 RICKANDMORTYADVENTURES -0.2616
-4.6488 RID -0.2991
-4.1717 RIDE -0.2572
-4.9498 RIDE, -0.3010
-4.9498 RIDE. -0.2616
-4.9498 RIDICULOUS. -0.2616
-4.9498 RIDLEY. -0.2616
-4.9498 RIGAMAROLE? -0.2616
-3.2686 RIGHT -0.2539
-4.9498 RIGHT! -0.2616
-3.2422 RIGHT, -0.2500
-3.4727 RIGHT. -0.2566
-3.9956 RIGHT? -0.2616
-4.9498 RIGHTS -0.2990
-4.9498 RINGS, -0.2990
-4.4727 RIP -0.2973
-4.6488 RIP-OFF -0.2595
-4.9498 RIPPED -0.3010
-4.9498 RISE -0.3010
-4.9498 RITUAL. -0.2616
-4.4727 ROAD -0.2984
-4.9498 ROB -0.3010
-4.3478 ROBOT -0.2615
-4.9498 ROBOT! -0.2616
-4.9498 ROBOT'S -0.3010
-4.6488 ROBOT, -0.2616
-4.9498 ROBOT. -0.2616
-4.6488 ROBOTS -0.3001
-4.9498 ROBOTS! -0.2616
-4.6488 ROBOTS, -0.3007
-4.9498 ROBOTS? -0.2616
-4.6488 ROCK, -0.2616
-4.9498 ROCKS -0.2616
-4.6488 ROCKY -0.3010
-4.9498 RODENT -0.2616
-4.9498 ROGER -0.2990
-4.9498 ROGUE -0.3010
-4.3478 ROLL -0.2607
-4.6488 ROMANTIC -0.3010
-4.9498 ROOFIE -0.2997
-4.9498 ROOFIE-JUICE -0.3010
-4.3478 ROOM -0.2588
-4.4727 ROOM, -0.2605
-4.6488 ROOM. -0.2616
-4.6488 ROOM? -0.2616
-4.4727 ROOT -0.2595
-4.9498 ROPE -0.3003
-4.1717 ROPED -0.3003
-4.9498 ROSEMARY'S -0.3010
-4.9498 ROTTING -0.3010
-4.9498 ROUGH -0.3010
-4.9498 ROUND? -0.2616
-4.9498 ROUTE -0.3010
-4.9498 ROUTE. -0.2616
-4.9498 ROUTINE -0.3010
-4.9498 ROW, -0.3008
-4.6488 RUB -0.2986
-4.9498 RUFFLES -0.2616
-4.6488 RUIN -0.2986
-4.9498 RUINED -0.2616
-4.9498 RUINING -0.3008
-4.9498 RULE. -0.2616
-4.4727 RULER -0.2991
-4.9498 RULES. -0.2616
-4.9498 RULING -0.3010
-3.9956 RUN -0.2593
-4.2508 RUN! -0.2616
-4.1717 RUN, -0.2614
-4.6488 RUN. -0.2616
-4.6488 RUNNIN' -0.3010
-4.1717 RUNNING -0.2600
-4.6488 RUNNING. -0.2616
-4.9498 RUSH. -0.2616
-4.9498 S -0.3010
-4.9498 S-S-S-SUMMER! -0.2616
-4.9498 S-SAMANTHA. -0.3010
-4.9498 S-SIDE -0.2616
-4.9498 SABOTAGED. -0.2616
-4.9498 SACRED! -0.2616
-4.9498 SACRIFICE -0.2616
-4.9498 SACS -0.3010
-4.9498 SAFARI! -0.2616
-4.6488 SAFE -0.2616
-4.9498 SAFE, -0.3009
-4.9498 SAFER -0.3010
-4.9498 SAGET. -0.2616
-3.9498 SAID -0.2488
-4.9498 SAID, -0.3010
-4.9498 SAKE! -0.2616
-4.9498 SALARY -0.3002
-4.9498 SALEM. -0.2616
-3.9084 SAME -0.2613
-4.6488 SANCHEZ -0.2992
-4.9498 SANCHEZ! -0.2616
-4.9498 SANCHEZ, -0.2976
-4.9498 SAND, -0.2616
-4.6488 SANDWICH -0.2615
-4.9498 SANDWICH. -0.2616
-4.9498 SANE -0.3010
-4.9498 SANEST -0.3010
-4.9498 SANTA -0.3009
-4.9498 SARCASTICALLY, -0.2616
-4.9498 SATISFACTION -0.2616
-4.6488 SATISFYING -0.2616
-4.9498 SATISFYING. -0.2616
-4.9498 SATURDAY -0.3010
-4.9498 SATURDAY. -0.2616
-4.9498 SAUSAGE -0.3010
-4.3478 SAVE -0.2574
-4.9498 SAVED -0.2616
-4.9498 SAVED! -0.2616
-4.6488 SAVIOR, -0.2616
-4.9498 SAW -0.3010
-3.3816 SAY -0.2426
-3.9498 SAY, -0.3004
-4.4727 SAY. -0.2616
-4.6488 SAY? -0.2616
-3.9956 SAYING -0.2492
-4.3478 SAYING, -0.2611
-4.9498 SAYING? -0.2616
-4.1717 SAYS -0.2557
-4.6488 SAYS, -0.2616
-4.9498 SAYS. -0.2616
-4.9498 SCALING -0.3009
-4.9498 SCALPEL -0.2616
-4.9498 SCALPEL. -0.2616
-4.4727 SCAM -0.2964
-4.6488 SCAMMERS, -0.2614
-4.9498 SCAN -0.2616
-4.4727 SCAR -0.2973
-4.9498 SCARE -0.3009
-4.9498 SCARIEST -0.3010
-4.6488 SCARING -0.3007
-3.7194 SCARY -0.2590
-4.9498 SCENARIO -0.2616
-4.0467 SCHOOL -0.2576
-4.9498 SCHOOL! -0.2616
-4.9498 SCHOOL, -0.3009
-3.9498 SCHOOL. -0.2616
-4.6488 SCHOOL? -0.2616
-4.9498 SCI-FI -0.3010
-3.6488 SCIENCE -0.2538
-4.3478 SCIENCE, -0.2601
-4.2508 SCIENCE. -0.2616
-4.9498 SCIENTIFIC, -0.3009
-4.9498 SCIENTIFICALLY, -0.2616
-4.3478 SCIENTIST -0.2610
-4.6488 SCIENTIST. -0.2616
-4.9498 SCIENTIST? -0.2616
-4.9498 SCIENTISTS -0.3010
-4.9498 SCOOT, -0.3010
-4.9498 SCOTCH -0.3010
-4.9498 SCOUTING. -0.2616
-4.9498 SCOUTS -0.3009
-4.9498 SCRAPS -0.2616
-4.9498 SCREAMING -0.3005
-4.9498 SCREEN -0.3010
-4.9498 SCREENS. -0.2616
-4.3478 SCREW -0.3005
-4.9498 SCREWDRIVER -0.2616
-4.6488 SCREWDRIVER, -0.3008
-4.4727 SCREWDRIVER. -0.2616
-4.9498 SCREWED -0.3008
-4.9498 SCREWED! -0.2616
-4.3478 SCROOPY -0.3010
-4.9498 SEABOARD. -0.2616
-4.9498 SEAL -0.2997
-4.9498 SEALED -0.3009
-4.9498 SEARCH -0.2991
-4.4727 SEASON -0.3010
-4.9498 SEASON. -0.2616
-4.9498 SEATTLE. -0.2616
-4.9498 SEC. -0.2616
-4.6488 SECOND, -0.2616
-4.9498 SECOND? -0.2616
-4.9498 SECRECY. -0.2616
-4.9498 SECRET? -0.2616
-4.9498 SECRETS -0.3008
-4.9498 SECRETS, -0.2616
-4.6488 SECTOR -0.3006
